<?xml version="1.0"?>
<opencv_storage>
<cascade>
  <stageType>BOOST</stageType>
  <featureType>HAAR</featureType>
  <height>24</height>
  <width>24</width>
  <stageParams>
    <boostType>GAB</boostType>
    <minHitRate>9.9500000476837158e-01</minHitRate>
    <maxFalseAlarm>5.0000000000000000e-01</maxFalseAlarm>
    <weightTrimRate>9.4999999999999996e-01</weightTrimRate>
    <maxDepth>1</maxDepth>
    <maxWeakCount>100</maxWeakCount></stageParams>
  <featureParams>
    <maxCatCount>0</maxCatCount>
    <featSize>1</featSize>
    <mode>BASIC</mode></featureParams>
  <stageNum>30</stageNum>
  <stages>
    <!-- stage 0 -->
    <_>
      <maxWeakCount>8</maxWeakCount>
      <stageThreshold>-1.9611681699752808e+00</stageThreshold>
      <weakClassifiers>
        <_>
          <internalNodes>
            0 -1 60 -1.4821349759586155e-04</internalNodes>
          <leafValues>
            1.2172573059797287e-01 -7.8799688816070557e-01</leafValues></_>
        <_>
          <internalNodes>
            0 -1 124 2.3277693986892700e-01</internalNodes>
          <leafValues>
            -4.5487666130065918e-01 6.1944383382797241e-01</leafValues></_>
        <_>
          <internalNodes>
            0 -1 445 4.9421412404626608e-04</internalNodes>
          <leafValues>
            -4.0208932757377625e-01 4.7144624590873718e-01</leafValues></_>
        <_>
          <internalNodes>
            0 -1 118 -1.5849536284804344e-03</internalNodes>
          <leafValues>
            3.5685971379280090e-01 -4.5756995677947998e-01</leafValues></_>
        <_>
          <internalNodes>
            0 -1 259 -8.0747500061988831e-02</internalNodes>
          <leafValues>
            7.3157936334609985e-01 -1.9011984765529633e-01</leafValues></_>
        <_>
          <internalNodes>
            0 -1 24 -2.3015402257442474e-02</internalNodes>
          <leafValues>
            4.4944825768470764e-01 -2.9465261101722717e-01</leafValues></_>
        <_>
          <internalNodes>
            0 -1 87 1.8215386662632227e-03</internalNodes>
          <leafValues>
            -1.3888223469257355e-01 6.0815477371215820e-01</leafValues></_>
        <_>
          <internalNodes>
            0 -1 36 -1.4909427845850587e-03</internalNodes>
          <leafValues>
            6.8839633464813232e-01 -1.5667980909347534e-01</leafValues></_></weakClassifiers></_>
    <!-- stage 1 -->
    <_>
      <maxWeakCount>16</maxWeakCount>
      <stageThreshold>-1.6302580833435059e+00</stageThreshold>
      <weakClassifiers>
        <_>
          <internalNodes>
            0 -1 29 -5.4816640913486481e-03</internalNodes>
          <leafValues>
            2.4137930572032928e-01 -6.2554246187210083e-01</leafValues></_>
        <_>
          <internalNodes>
            0 -1 427 3.8375228177756071e-04</internalNodes>
          <leafValues>
            -4.4148433208465576e-01 2.5778537988662720e-01</leafValues></_>
        <_>
          <internalNodes>
            0 -1 260 -1.6178712248802185e-02</internalNodes>
          <leafValues>
            4.5888203382492065e-01 -2.4083945155143738e-01</leafValues></_>
        <_>
          <internalNodes>
            0 -1 65 -9.5794093795120716e-05</internalNodes>
          <leafValues>
            2.8250601887702942e-01 -3.4875795245170593e-01</leafValues></_>
        <_>
          <internalNodes>
            0 -1 247 4.4208196923136711e-03</internalNodes>
          <leafValues>
            1.3107687234878540e-01 -6.7404800653457642e-01</leafValues></_>
        <_>
          <internalNodes>
            0 -1 37 1.0265584569424391e-03</internalNodes>
          <leafValues>
            -2.0062351226806641e-01 4.8095265030860901e-01</leafValues></_>
        <_>
          <internalNodes>
            0 -1 61 2.7793543267762288e-05</internalNodes>
          <leafValues>
            -2.6266482472419739e-01 3.6051705479621887e-01</leafValues></_>
        <_>
          <internalNodes>
            0 -1 77 3.8363677263259888e-01</internalNodes>
          <leafValues>
            -1.3531932234764099e-01 6.1422789096832275e-01</leafValues></_>
        <_>
          <internalNodes>
            0 -1 401 -5.4550648201256990e-04</internalNodes>
          <leafValues>
            3.2746705412864685e-01 -2.7146413922309875e-01</leafValues></_>
        <_>
          <internalNodes>
            0 -1 175 -1.1089217150583863e-03</internalNodes>
          <leafValues>
            4.7375264763832092e-01 -1.9566857814788818e-01</leafValues></_>
        <_>
          <internalNodes>
            0 -1 330 1.1802444350905716e-04</internalNodes>
          <leafValues>
            -2.1897287666797638e-01 3.6085447669029236e-01</leafValues></_>
        <_>
          <internalNodes>
            0 -1 104 3.6699650809168816e-04</internalNodes>
          <leafValues>
            2.2765029966831207e-01 -3.6198404431343079e-01</leafValues></_>
        <_>
          <internalNodes>
            0 -1 44 -3.9919214323163033e-03</internalNodes>
          <leafValues>
            6.1673653125762939e-01 -1.3138486444950104e-01</leafValues></_>
        <_>
          <internalNodes>
            0 -1 46 2.8708074241876602e-03</internalNodes>
          <leafValues>
            -1.4237916469573975e-01 5.9665364027023315e-01</leafValues></_>
        <_>
          <internalNodes>
            0 -1 377 1.8705796450376511e-02</internalNodes>
          <leafValues>
            -2.2855854034423828e-01 3.7305206060409546e-01</leafValues></_>
        <_>
          <internalNodes>
            0 -1 84 -1.6222771257162094e-02</internalNodes>
          <leafValues>
            2.9217752814292908e-01 -2.5823163986206055e-01</leafValues></_></weakClassifiers></_>
    <!-- stage 2 -->
    <_>
      <maxWeakCount>17</maxWeakCount>
      <stageThreshold>-1.6021089553833008e+00</stageThreshold>
      <weakClassifiers>
        <_>
          <internalNodes>
            0 -1 81 1.4081534743309021e-01</internalNodes>
          <leafValues>
            -6.2155228853225708e-01 9.9195711314678192e-02</leafValues></_>
        <_>
          <internalNodes>
            0 -1 49 -2.6455498300492764e-03</internalNodes>
          <leafValues>
            5.0886893272399902e-01 -2.5810438394546509e-01</leafValues></_>
        <_>
          <internalNodes>
            0 -1 210 -2.7937854174524546e-03</internalNodes>
          <leafValues>
            4.7628235816955566e-01 -1.8462568521499634e-01</leafValues></_>
        <_>
          <internalNodes>
            0 -1 444 1.3369470834732056e-03</internalNodes>
          <leafValues>
            -2.6373907923698425e-01 3.4098270535469055e-01</leafValues></_>
        <_>
          <internalNodes>
            0 -1 44 3.0385903082787991e-03</internalNodes>
          <leafValues>
            -1.4151111245155334e-01 5.6030511856079102e-01</leafValues></_>
        <_>
          <internalNodes>
            0 -1 296 -2.0589742809534073e-02</internalNodes>
          <leafValues>
            4.1983506083488464e-01 -1.6642831265926361e-01</leafValues></_>
        <_>
          <internalNodes>
            0 -1 62 -7.4281019624322653e-04</internalNodes>
          <leafValues>
            2.2878591716289520e-01 -3.2028251886367798e-01</leafValues></_>
        <_>
          <internalNodes>
            0 -1 274 -5.4111201316118240e-02</internalNodes>
          <leafValues>
            3.6735823750495911e-01 -1.9460384547710419e-01</leafValues></_>
        <_>
          <internalNodes>
            0 -1 85 -2.3819159716367722e-02</internalNodes>
          <leafValues>
            2.7654892206192017e-01 -3.1550118327140808e-01</leafValues></_>
        <_>
          <internalNodes>
            0 -1 9 2.8134267777204514e-03</internalNodes>
          <leafValues>
            -1.4098562300205231e-01 4.9771389365196228e-01</leafValues></_>
        <_>
          <internalNodes>
            0 -1 238 -1.0460505634546280e-01</internalNodes>
          <leafValues>
            2.6810145378112793e-01 -2.6458376646041870e-01</leafValues></_>
        <_>
          <internalNodes>
            0 -1 172 -1.0835590958595276e-01</internalNodes>
          <leafValues>
            6.4785915613174438e-01 -9.9239915609359741e-02</leafValues></_>
        <_>
          <internalNodes>
            0 -1 18 -2.0453524589538574e-01</internalNodes>
          <leafValues>
            6.5262722969055176e-01 -1.1274138838052750e-01</leafValues></_>
        <_>
          <internalNodes>
            0 -1 360 6.5628904849290848e-03</internalNodes>
          <leafValues>
            -1.1361268162727356e-01 5.5772399902343750e-01</leafValues></_>
        <_>
          <internalNodes>
            0 -1 184 4.7560064122080803e-03</internalNodes>
          <leafValues>
            1.4244545996189117e-01 -5.8840900659561157e-01</leafValues></_>
        <_>
          <internalNodes>
            0 -1 276 3.2244045287370682e-03</internalNodes>
          <leafValues>
            -2.3532445728778839e-01 2.8586187958717346e-01</leafValues></_>
        <_>
          <internalNodes>
            0 -1 399 -4.7745546326041222e-03</internalNodes>
          <leafValues>
            4.8803019523620605e-01 -1.4349664747714996e-01</leafValues></_></weakClassifiers></_>
    <!-- stage 3 -->
    <_>
      <maxWeakCount>22</maxWeakCount>
      <stageThreshold>-1.5237820148468018e+00</stageThreshold>
      <weakClassifiers>
        <_>
          <internalNodes>
            0 -1 228 -3.4217521548271179e-02</internalNodes>
          <leafValues>
            3.2581452280282974e-02 -6.1643832921981812e-01</leafValues></_>
        <_>
          <internalNodes>
            0 -1 55 -3.4854203113354743e-04</internalNodes>
          <leafValues>
            2.4635069072246552e-01 -3.2172003388404846e-01</leafValues></_>
        <_>
          <internalNodes>
            0 -1 86 6.4333349466323853e-02</internalNodes>
          <leafValues>
            -1.8699127435684204e-01 4.4671726226806641e-01</leafValues></_>
        <_>
          <internalNodes>
            0 -1 3 -2.9219400137662888e-02</internalNodes>
          <leafValues>
            4.4635224342346191e-01 -1.5015114843845367e-01</leafValues></_>
        <_>
          <internalNodes>
            0 -1 429 4.5376579510048032e-04</internalNodes>
          <leafValues>
            -2.8495940566062927e-01 2.6871949434280396e-01</leafValues></_>
        <_>
          <internalNodes>
            0 -1 70 3.1528556719422340e-03</internalNodes>
          <leafValues>
            1.8743315339088440e-01 -4.2189902067184448e-01</leafValues></_>
        <_>
          <internalNodes>
            0 -1 432 -2.5310781784355640e-03</internalNodes>
          <leafValues>
            4.0179979801177979e-01 -1.6173978149890900e-01</leafValues></_>
        <_>
          <internalNodes>
            0 -1 203 3.9060105336830020e-04</internalNodes>
          <leafValues>
            1.3234660029411316e-01 -4.5632287859916687e-01</leafValues></_>
        <_>
          <internalNodes>
            0 -1 435 9.4363960670307279e-04</internalNodes>
          <leafValues>
            -1.7497158050537109e-01 3.7956175208091736e-01</leafValues></_>
        <_>
          <internalNodes>
            0 -1 381 9.8337098956108093e-02</internalNodes>
          <leafValues>
            -7.5130403041839600e-02 8.2529479265213013e-01</leafValues></_>
        <_>
          <internalNodes>
            0 -1 410 -5.4032695479691029e-03</internalNodes>
          <leafValues>
            4.0804845094680786e-01 -1.4536747336387634e-01</leafValues></_>
        <_>
          <internalNodes>
            0 -1 7 -4.4478705525398254e-01</internalNodes>
          <leafValues>
            7.3612898588180542e-01 -7.6887384057044983e-02</leafValues></_>
        <_>
          <internalNodes>
            0 -1 404 -5.6185652501881123e-03</internalNodes>
          <leafValues>
            3.6964672803878784e-01 -1.7599426209926605e-01</leafValues></_>
        <_>
          <internalNodes>
            0 -1 152 -4.8236604779958725e-03</internalNodes>
          <leafValues>
            4.2749166488647461e-01 -1.3921850919723511e-01</leafValues></_>
        <_>
          <internalNodes>
            0 -1 373 5.0579290837049484e-04</internalNodes>
          <leafValues>
            -1.7290835082530975e-01 3.6304968595504761e-01</leafValues></_>
        <_>
          <internalNodes>
            0 -1 132 1.4910746365785599e-02</internalNodes>
          <leafValues>
            -1.0441994667053223e-01 5.3720468282699585e-01</leafValues></_>
        <_>
          <internalNodes>
            0 -1 129 -6.7183994688093662e-03</internalNodes>
          <leafValues>
            3.0067604780197144e-01 -2.3112046718597412e-01</leafValues></_>
        <_>
          <internalNodes>
            0 -1 165 -2.0258847624063492e-02</internalNodes>
          <leafValues>
            -7.4328947067260742e-01 9.2272639274597168e-02</leafValues></_>
        <_>
          <internalNodes>
            0 -1 88 2.4573907721787691e-03</internalNodes>
          <leafValues>
            -1.9234682619571686e-01 3.6068585515022278e-01</leafValues></_>
        <_>
          <internalNodes>
            0 -1 115 -3.2236566767096519e-03</internalNodes>
          <leafValues>
            2.6661500334739685e-01 -2.5271937251091003e-01</leafValues></_>
        <_>
          <internalNodes>
            0 -1 15 -3.3631711266934872e-03</internalNodes>
          <leafValues>
            3.2463213801383972e-01 -2.0648738741874695e-01</leafValues></_>
        <_>
          <internalNodes>
            0 -1 226 4.9256160855293274e-03</internalNodes>
          <leafValues>
            1.0326743125915527e-01 -7.1168452501296997e-01</leafValues></_></weakClassifiers></_>
    <!-- stage 4 -->
    <_>
      <maxWeakCount>19</maxWeakCount>
      <stageThreshold>-1.4096115827560425e+00</stageThreshold>
      <weakClassifiers>
        <_>
          <internalNodes>
            0 -1 33 -1.6796715557575226e-02</internalNodes>
          <leafValues>
            8.7096774578094482e-01 -5.2727270126342773e-01</leafValues></_>
        <_>
          <internalNodes>
            0 -1 44 -2.6062708348035812e-03</internalNodes>
          <leafValues>
            4.4535335898399353e-01 -2.5691202282905579e-01</leafValues></_>
        <_>
          <internalNodes>
            0 -1 283 1.0513530112802982e-02</internalNodes>
          <leafValues>
            -1.9904178380966187e-01 3.4189337491989136e-01</leafValues></_>
        <_>
          <internalNodes>
            0 -1 223 -7.8991651535034180e-02</internalNodes>
          <leafValues>
            2.8963032364845276e-01 -2.3565264046192169e-01</leafValues></_>
        <_>
          <internalNodes>
            0 -1 269 -1.4339593690237962e-05</internalNodes>
          <leafValues>
            2.4671913683414459e-01 -3.3171600103378296e-01</leafValues></_>
        <_>
          <internalNodes>
            0 -1 449 5.4983520385576412e-05</internalNodes>
          <leafValues>
            -2.4948641657829285e-01 2.9458642005920410e-01</leafValues></_>
        <_>
          <internalNodes>
            0 -1 402 -2.3076226934790611e-03</internalNodes>
          <leafValues>
            5.2787888050079346e-01 -1.6087865829467773e-01</leafValues></_>
        <_>
          <internalNodes>
            0 -1 339 3.3877469599246979e-02</internalNodes>
          <leafValues>
            -1.7715649306774139e-01 3.6333483457565308e-01</leafValues></_>
        <_>
          <internalNodes>
            0 -1 233 -1.8275559414178133e-03</internalNodes>
          <leafValues>
            2.7802178263664246e-01 -2.6698216795921326e-01</leafValues></_>
        <_>
          <internalNodes>
            0 -1 19 -2.4872368574142456e-01</internalNodes>
          <leafValues>
            5.4489612579345703e-01 -1.4018741250038147e-01</leafValues></_>
        <_>
          <internalNodes>
            0 -1 38 1.3341458979994059e-03</internalNodes>
          <leafValues>
            -1.5868936479091644e-01 4.2177188396453857e-01</leafValues></_>
        <_>
          <internalNodes>
            0 -1 252 -1.7769311089068651e-03</internalNodes>
          <leafValues>
            2.4992093443870544e-01 -2.2522185742855072e-01</leafValues></_>
        <_>
          <internalNodes>
            0 -1 147 -3.6729467101395130e-03</internalNodes>
          <leafValues>
            6.1532264947891235e-01 -1.0269258171319962e-01</leafValues></_>
        <_>
          <internalNodes>
            0 -1 369 1.0923312976956367e-02</internalNodes>
          <leafValues>
            -9.5789372920989990e-02 5.9626775979995728e-01</leafValues></_>
        <_>
          <internalNodes>
            0 -1 302 -1.3385672122240067e-02</internalNodes>
          <leafValues>
            3.4169104695320129e-01 -1.6744814813137054e-01</leafValues></_>
        <_>
          <internalNodes>
            0 -1 265 -8.5117314010858536e-03</internalNodes>
          <leafValues>
            -3.5944476723670959e-01 1.6967467963695526e-01</leafValues></_>
        <_>
          <internalNodes>
            0 -1 51 3.9160270243883133e-03</internalNodes>
          <leafValues>
            7.8897245228290558e-02 -7.8536671400070190e-01</leafValues></_>
        <_>
          <internalNodes>
            0 -1 149 4.7990716993808746e-02</internalNodes>
          <leafValues>
            8.8765211403369904e-02 -5.7078921794891357e-01</leafValues></_>
        <_>
          <internalNodes>
            0 -1 16 2.6956155896186829e-02</internalNodes>
          <leafValues>
            -1.3304583728313446e-01 4.7448614239692688e-01</leafValues></_></weakClassifiers></_>
    <!-- stage 5 -->
    <_>
      <maxWeakCount>22</maxWeakCount>
      <stageThreshold>-1.4736939668655396e+00</stageThreshold>
      <weakClassifiers>
        <_>
          <internalNodes>
            0 -1 99 -2.4187587201595306e-02</internalNodes>
          <leafValues>
            2.3201855365186930e-03 -6.2158560752868652e-01</leafValues></_>
        <_>
          <internalNodes>
            0 -1 67 -6.8803562317043543e-04</internalNodes>
          <leafValues>
            1.4337359368801117e-01 -3.9100983738899231e-01</leafValues></_>
        <_>
          <internalNodes>
            0 -1 249 -2.3636675905436277e-03</internalNodes>
          <leafValues>
            -4.6175932884216309e-01 1.3120806217193604e-01</leafValues></_>
        <_>
          <internalNodes>
            0 -1 205 6.8002159241586924e-04</internalNodes>
          <leafValues>
            1.2981550395488739e-01 -5.8629691600799561e-01</leafValues></_>
        <_>
          <internalNodes>
            0 -1 362 2.8147971257567406e-02</internalNodes>
          <leafValues>
            -1.1820654571056366e-01 6.2821227312088013e-01</leafValues></_>
        <_>
          <internalNodes>
            0 -1 320 -1.0578329674899578e-03</internalNodes>
          <leafValues>
            4.4491931796073914e-01 -1.5026760101318359e-01</leafValues></_>
        <_>
          <internalNodes>
            0 -1 183 -4.0786024183034897e-03</internalNodes>
          <leafValues>
            -4.9153256416320801e-01 1.0781956464052200e-01</leafValues></_>
        <_>
          <internalNodes>
            0 -1 447 1.0275452223140746e-04</internalNodes>
          <leafValues>
            -2.9881033301353455e-01 2.4096247553825378e-01</leafValues></_>
        <_>
          <internalNodes>
            0 -1 254 -1.1954186111688614e-01</internalNodes>
          <leafValues>
            -6.7252892255783081e-01 1.0238759219646454e-01</leafValues></_>
        <_>
          <internalNodes>
            0 -1 166 4.5345115358941257e-04</internalNodes>
          <leafValues>
            2.1621124446392059e-01 -2.8866422176361084e-01</leafValues></_>
        <_>
          <internalNodes>
            0 -1 34 1.5133864944800735e-03</internalNodes>
          <leafValues>
            -1.6516670584678650e-01 5.6498849391937256e-01</leafValues></_>
        <_>
          <internalNodes>
            0 -1 197 -7.1119563654065132e-04</internalNodes>
          <leafValues>
            3.6152601242065430e-01 -1.5166421234607697e-01</leafValues></_>
        <_>
          <internalNodes>
            0 -1 200 1.9775168038904667e-03</internalNodes>
          <leafValues>
            1.0040704160928726e-01 -5.4301047325134277e-01</leafValues></_>
        <_>
          <internalNodes>
            0 -1 355 -1.0433711111545563e-02</internalNodes>
          <leafValues>
            6.6490781307220459e-01 -1.0169055312871933e-01</leafValues></_>
        <_>
          <internalNodes>
            0 -1 406 6.8429321050643921e-02</internalNodes>
          <leafValues>
            -7.8886367380619049e-02 6.3708204030990601e-01</leafValues></_>
        <_>
          <internalNodes>
            0 -1 198 -1.3486871495842934e-02</internalNodes>
          <leafValues>
            2.9549261927604675e-01 -1.9244103133678436e-01</leafValues></_>
        <_>
          <internalNodes>
            0 -1 138 -2.5379830598831177e-01</internalNodes>
          <leafValues>
            4.2967975139617920e-01 -1.4432209730148315e-01</leafValues></_>
        <_>
          <internalNodes>
            0 -1 400 -1.6575839836150408e-03</internalNodes>
          <leafValues>
            3.5866513848304749e-01 -2.0527215301990509e-01</leafValues></_>
        <_>
          <internalNodes>
            0 -1 264 1.7607137560844421e-03</internalNodes>
          <leafValues>
            -2.2337876260280609e-01 2.9970541596412659e-01</leafValues></_>
        <_>
          <internalNodes>
            0 -1 173 7.0828404277563095e-03</internalNodes>
          <leafValues>
            -1.2418659031391144e-01 5.2253055572509766e-01</leafValues></_>
        <_>
          <internalNodes>
            0 -1 294 -1.7225526273250580e-02</internalNodes>
          <leafValues>
            4.2230337858200073e-01 -1.3775175809860229e-01</leafValues></_>
        <_>
          <internalNodes>
            0 -1 326 -1.1507375165820122e-02</internalNodes>
          <leafValues>
            6.8833768367767334e-01 -7.9799190163612366e-02</leafValues></_></weakClassifiers></_>
    <!-- stage 6 -->
    <_>
      <maxWeakCount>25</maxWeakCount>
      <stageThreshold>-1.6330555677413940e+00</stageThreshold>
      <weakClassifiers>
        <_>
          <internalNodes>
            0 -1 28 -8.6124623194336891e-03</internalNodes>
          <leafValues>
            5.9574466943740845e-01 -5.3754079341888428e-01</leafValues></_>
        <_>
          <internalNodes>
            0 -1 204 -7.9644784331321716e-02</internalNodes>
          <leafValues>
            2.9930201172828674e-01 -2.8227281570434570e-01</leafValues></_>
        <_>
          <internalNodes>
            0 -1 240 -1.3956436305306852e-05</internalNodes>
          <leafValues>
            2.7218350768089294e-01 -3.1542363762855530e-01</leafValues></_>
        <_>
          <internalNodes>
            0 -1 60 -3.3466008608229458e-04</internalNodes>
          <leafValues>
            2.7887666225433350e-01 -2.3872806131839752e-01</leafValues></_>
        <_>
          <internalNodes>
            0 -1 159 -5.8543086051940918e-03</internalNodes>
          <leafValues>
            2.2746486961841583e-01 -2.9363617300987244e-01</leafValues></_>
        <_>
          <internalNodes>
            0 -1 361 1.9801233429461718e-03</internalNodes>
          <leafValues>
            -9.9704399704933167e-02 5.3746145963668823e-01</leafValues></_>
        <_>
          <internalNodes>
            0 -1 93 2.1621273830533028e-02</internalNodes>
          <leafValues>
            -1.2062517553567886e-01 5.2151632308959961e-01</leafValues></_>
        <_>
          <internalNodes>
            0 -1 76 -1.8186917901039124e-01</internalNodes>
          <leafValues>
            6.4460951089859009e-01 -9.9827490746974945e-02</leafValues></_>
        <_>
          <internalNodes>
            0 -1 297 -7.0944681763648987e-02</internalNodes>
          <leafValues>
            5.2133840322494507e-01 -8.9993640780448914e-02</leafValues></_>
        <_>
          <internalNodes>
            0 -1 212 4.8402138054370880e-03</internalNodes>
          <leafValues>
            -1.1629583686590195e-01 4.6536353230476379e-01</leafValues></_>
        <_>
          <internalNodes>
            0 -1 68 -2.0543574355542660e-03</internalNodes>
          <leafValues>
            1.9909451901912689e-01 -3.2068827748298645e-01</leafValues></_>
        <_>
          <internalNodes>
            0 -1 278 -1.1999351531267166e-01</internalNodes>
          <leafValues>
            5.7938712835311890e-01 -1.0419964790344238e-01</leafValues></_>
        <_>
          <internalNodes>
            0 -1 327 -1.0340072214603424e-02</internalNodes>
          <leafValues>
            5.8714741468429565e-01 -1.0393455624580383e-01</leafValues></_>
        <_>
          <internalNodes>
            0 -1 388 -2.7706711553037167e-03</internalNodes>
          <leafValues>
            2.0507943630218506e-01 -3.2564738392829895e-01</leafValues></_>
        <_>
          <internalNodes>
            0 -1 13 -2.6968263555318117e-03</internalNodes>
          <leafValues>
            4.6883860230445862e-01 -1.2900038063526154e-01</leafValues></_>
        <_>
          <internalNodes>
            0 -1 319 -9.4907544553279877e-03</internalNodes>
          <leafValues>
            3.8611203432083130e-01 -1.5256267786026001e-01</leafValues></_>
        <_>
          <internalNodes>
            0 -1 348 5.4336234927177429e-02</internalNodes>
          <leafValues>
            1.0368409752845764e-01 -6.6733145713806152e-01</leafValues></_>
        <_>
          <internalNodes>
            0 -1 342 -9.3347281217575073e-03</internalNodes>
          <leafValues>
            4.5564243197441101e-01 -1.3333521783351898e-01</leafValues></_>
        <_>
          <internalNodes>
            0 -1 353 5.3198169916868210e-03</internalNodes>
          <leafValues>
            -9.9203065037727356e-02 5.8658444881439209e-01</leafValues></_>
        <_>
          <internalNodes>
            0 -1 59 -3.9844579994678497e-02</internalNodes>
          <leafValues>
            -4.3297311663627625e-01 1.6110423207283020e-01</leafValues></_>
        <_>
          <internalNodes>
            0 -1 384 1.2750756740570068e-01</internalNodes>
          <leafValues>
            -1.0089582204818726e-01 6.7368817329406738e-01</leafValues></_>
        <_>
          <internalNodes>
            0 -1 305 1.6402364417444915e-04</internalNodes>
          <leafValues>
            1.8460357189178467e-01 -3.3926650881767273e-01</leafValues></_>
        <_>
          <internalNodes>
            0 -1 123 -9.1133303940296173e-03</internalNodes>
          <leafValues>
            -7.0841425657272339e-01 9.2039376497268677e-02</leafValues></_>
        <_>
          <internalNodes>
            0 -1 74 -3.6248327232897282e-03</internalNodes>
          <leafValues>
            2.9437646269798279e-01 -2.3276394605636597e-01</leafValues></_>
        <_>
          <internalNodes>
            0 -1 191 -3.9283195510506630e-03</internalNodes>
          <leafValues>
            -6.1977082490921021e-01 9.6093460917472839e-02</leafValues></_></weakClassifiers></_>
    <!-- stage 7 -->
    <_>
      <maxWeakCount>19</maxWeakCount>
      <stageThreshold>-1.4117801189422607e+00</stageThreshold>
      <weakClassifiers>
        <_>
          <internalNodes>
            0 -1 239 -3.1988106667995453e-02</internalNodes>
          <leafValues>
            5.2066117525100708e-01 -5.4942023754119873e-01</leafValues></_>
        <_>
          <internalNodes>
            0 -1 111 -2.5688060559332371e-03</internalNodes>
          <leafValues>
            4.7781717777252197e-01 -2.0172446966171265e-01</leafValues></_>
        <_>
          <internalNodes>
            0 -1 111 2.3444751277565956e-03</internalNodes>
          <leafValues>
            -1.4191167056560516e-01 4.7875887155532837e-01</leafValues></_>
        <_>
          <internalNodes>
            0 -1 182 -1.5401997370645404e-03</internalNodes>
          <leafValues>
            -4.2791208624839783e-01 1.7815513908863068e-01</leafValues></_>
        <_>
          <internalNodes>
            0 -1 439 1.3961181139166001e-05</internalNodes>
          <leafValues>
            -3.0664029717445374e-01 2.2100789844989777e-01</leafValues></_>
        <_>
          <internalNodes>
            0 -1 315 1.5162813663482666e-01</internalNodes>
          <leafValues>
            -1.3448728621006012e-01 4.2602384090423584e-01</leafValues></_>
        <_>
          <internalNodes>
            0 -1 161 -2.2481225430965424e-02</internalNodes>
          <leafValues>
            3.3802476525306702e-01 -2.1356420218944550e-01</leafValues></_>
        <_>
          <internalNodes>
            0 -1 64 9.9254511296749115e-03</internalNodes>
          <leafValues>
            -1.2823678553104401e-01 4.6752265095710754e-01</leafValues></_>
        <_>
          <internalNodes>
            0 -1 94 5.4961472749710083e-02</internalNodes>
          <leafValues>
            -8.2921087741851807e-02 7.2904467582702637e-01</leafValues></_>
        <_>
          <internalNodes>
            0 -1 295 -1.5006609261035919e-02</internalNodes>
          <leafValues>
            5.0638484954833984e-01 -1.1268138885498047e-01</leafValues></_>
        <_>
          <internalNodes>
            0 -1 110 -2.9453553725033998e-03</internalNodes>
          <leafValues>
            2.3998466134071350e-01 -2.5367498397827148e-01</leafValues></_>
        <_>
          <internalNodes>
            0 -1 307 1.3511717319488525e-02</internalNodes>
          <leafValues>
            9.4488777220249176e-02 -5.9789943695068359e-01</leafValues></_>
        <_>
          <internalNodes>
            0 -1 306 4.1816447628661990e-04</internalNodes>
          <leafValues>
            9.3998640775680542e-02 -5.6173843145370483e-01</leafValues></_>
        <_>
          <internalNodes>
            0 -1 133 -3.2147340476512909e-02</internalNodes>
          <leafValues>
            4.6433576941490173e-01 -1.2066420912742615e-01</leafValues></_>
        <_>
          <internalNodes>
            0 -1 286 1.7299329920206219e-04</internalNodes>
          <leafValues>
            1.1247709393501282e-01 -4.9614882469177246e-01</leafValues></_>
        <_>
          <internalNodes>
            0 -1 376 -1.1584209278225899e-03</internalNodes>
          <leafValues>
            4.0251788496971130e-01 -1.5162944793701172e-01</leafValues></_>
        <_>
          <internalNodes>
            0 -1 41 -9.4308592379093170e-02</internalNodes>
          <leafValues>
            3.0025449395179749e-01 -1.9331729412078857e-01</leafValues></_>
        <_>
          <internalNodes>
            0 -1 338 -3.5828661639243364e-03</internalNodes>
          <leafValues>
            3.1388047337532043e-01 -1.8427579104900360e-01</leafValues></_>
        <_>
          <internalNodes>
            0 -1 423 -1.3790200464427471e-03</internalNodes>
          <leafValues>
            4.5586341619491577e-01 -1.3705845177173615e-01</leafValues></_></weakClassifiers></_>
    <!-- stage 8 -->
    <_>
      <maxWeakCount>23</maxWeakCount>
      <stageThreshold>-1.4962898492813110e+00</stageThreshold>
      <weakClassifiers>
        <_>
          <internalNodes>
            0 -1 143 6.8226112052798271e-03</internalNodes>
          <leafValues>
            -5.8435207605361938e-01 8.1081077456474304e-02</leafValues></_>
        <_>
          <internalNodes>
            0 -1 196 1.1441850801929832e-03</internalNodes>
          <leafValues>
            -3.1880423426628113e-01 1.8293985724449158e-01</leafValues></_>
        <_>
          <internalNodes>
            0 -1 57 -3.7099532783031464e-03</internalNodes>
          <leafValues>
            2.6463720202445984e-01 -2.6474186778068542e-01</leafValues></_>
        <_>
          <internalNodes>
            0 -1 308 4.2654847493395209e-04</internalNodes>
          <leafValues>
            -2.5574690103530884e-01 2.3655317723751068e-01</leafValues></_>
        <_>
          <internalNodes>
            0 -1 120 1.2699472717940807e-02</internalNodes>
          <leafValues>
            1.5073026716709137e-01 -5.8985829353332520e-01</leafValues></_>
        <_>
          <internalNodes>
            0 -1 312 2.0277271687518805e-04</internalNodes>
          <leafValues>
            -2.3262615501880646e-01 2.9377624392509460e-01</leafValues></_>
        <_>
          <internalNodes>
            0 -1 174 -1.2656555045396090e-03</internalNodes>
          <leafValues>
            3.2053959369659424e-01 -1.8496254086494446e-01</leafValues></_>
        <_>
          <internalNodes>
            0 -1 40 -1.1136578023433685e-01</internalNodes>
          <leafValues>
            3.8192790746688843e-01 -1.8265187740325928e-01</leafValues></_>
        <_>
          <internalNodes>
            0 -1 337 6.3401214778423309e-02</internalNodes>
          <leafValues>
            -1.2310376018285751e-01 7.0067775249481201e-01</leafValues></_>
        <_>
          <internalNodes>
            0 -1 176 -1.0394691489636898e-02</internalNodes>
          <leafValues>
            3.8063040375709534e-01 -1.7970661818981171e-01</leafValues></_>
        <_>
          <internalNodes>
            0 -1 418 -1.4375979080796242e-03</internalNodes>
          <leafValues>
            3.8286238908767700e-01 -1.4399109780788422e-01</leafValues></_>
        <_>
          <internalNodes>
            0 -1 71 -1.7943316698074341e-01</internalNodes>
          <leafValues>
            6.5426182746887207e-01 -8.6233429610729218e-02</leafValues></_>
        <_>
          <internalNodes>
            0 -1 92 -1.7237463593482971e-01</internalNodes>
          <leafValues>
            4.2530289292335510e-01 -1.5011076629161835e-01</leafValues></_>
        <_>
          <internalNodes>
            0 -1 128 -4.2358222417533398e-03</internalNodes>
          <leafValues>
            3.3867922425270081e-01 -1.8269176781177521e-01</leafValues></_>
        <_>
          <internalNodes>
            0 -1 215 -2.7577297296375036e-03</internalNodes>
          <leafValues>
            6.1603569984436035e-01 -9.8617985844612122e-02</leafValues></_>
        <_>
          <internalNodes>
            0 -1 48 4.9853399395942688e-03</internalNodes>
          <leafValues>
            -6.6718317568302155e-02 7.4553579092025757e-01</leafValues></_>
        <_>
          <internalNodes>
            0 -1 65 -1.0178780212299898e-04</internalNodes>
          <leafValues>
            2.0472289621829987e-01 -3.0791071057319641e-01</leafValues></_>
        <_>
          <internalNodes>
            0 -1 409 -1.4207212254405022e-02</internalNodes>
          <leafValues>
            3.2064783573150635e-01 -2.0051343739032745e-01</leafValues></_>
        <_>
          <internalNodes>
            0 -1 364 -7.2686914354562759e-03</internalNodes>
          <leafValues>
            5.1350420713424683e-01 -1.0973834246397018e-01</leafValues></_>
        <_>
          <internalNodes>
            0 -1 69 3.7280838005244732e-03</internalNodes>
          <leafValues>
            1.3959723711013794e-01 -4.3615835905075073e-01</leafValues></_>
        <_>
          <internalNodes>
            0 -1 268 1.0961405932903290e-01</internalNodes>
          <leafValues>
            7.0510372519493103e-02 -6.8086427450180054e-01</leafValues></_>
        <_>
          <internalNodes>
            0 -1 168 -2.2272706031799316e-02</internalNodes>
          <leafValues>
            4.5748808979988098e-01 -1.4426404237747192e-01</leafValues></_>
        <_>
          <internalNodes>
            0 -1 434 -2.8798764105886221e-03</internalNodes>
          <leafValues>
            3.6605101823806763e-01 -1.4849796891212463e-01</leafValues></_></weakClassifiers></_>
    <!-- stage 9 -->
    <_>
      <maxWeakCount>23</maxWeakCount>
      <stageThreshold>-1.4947743415832520e+00</stageThreshold>
      <weakClassifiers>
        <_>
          <internalNodes>
            0 -1 261 -7.6038919389247894e-02</internalNodes>
          <leafValues>
            4.4642856717109680e-01 -5.3956043720245361e-01</leafValues></_>
        <_>
          <internalNodes>
            0 -1 300 -1.8739403458312154e-03</internalNodes>
          <leafValues>
            4.1855752468109131e-01 -2.0698501169681549e-01</leafValues></_>
        <_>
          <internalNodes>
            0 -1 448 2.6372974389232695e-05</internalNodes>
          <leafValues>
            -3.2816708087921143e-01 2.1470190584659576e-01</leafValues></_>
        <_>
          <internalNodes>
            0 -1 206 -2.0326345111243427e-04</internalNodes>
          <leafValues>
            -4.1040983796119690e-01 1.5899553894996643e-01</leafValues></_>
        <_>
          <internalNodes>
            0 -1 153 -1.2030823563691229e-04</internalNodes>
          <leafValues>
            2.9568299651145935e-01 -2.3513942956924438e-01</leafValues></_>
        <_>
          <internalNodes>
            0 -1 58 -2.2166681010276079e-03</internalNodes>
          <leafValues>
            2.8339162468910217e-01 -2.1655347943305969e-01</leafValues></_>
        <_>
          <internalNodes>
            0 -1 311 2.7744118124246597e-03</internalNodes>
          <leafValues>
            1.0121137648820877e-01 -7.0228981971740723e-01</leafValues></_>
        <_>
          <internalNodes>
            0 -1 412 -3.8366157095879316e-03</internalNodes>
          <leafValues>
            4.8076769709587097e-01 -1.4936250448226929e-01</leafValues></_>
        <_>
          <internalNodes>
            0 -1 363 5.0549982115626335e-03</internalNodes>
          <leafValues>
            -1.1794691532850266e-01 5.1074689626693726e-01</leafValues></_>
        <_>
          <internalNodes>
            0 -1 122 -9.3581773340702057e-02</internalNodes>
          <leafValues>
            4.9050390720367432e-01 -1.5000502765178680e-01</leafValues></_>
        <_>
          <internalNodes>
            0 -1 246 -1.1755193118005991e-03</internalNodes>
          <leafValues>
            -2.8539472818374634e-01 2.3248104751110077e-01</leafValues></_>
        <_>
          <internalNodes>
            0 -1 32 -9.9870249629020691e-02</internalNodes>
          <leafValues>
            8.5947072505950928e-01 -8.1979371607303619e-02</leafValues></_>
        <_>
          <internalNodes>
            0 -1 391 -1.6639870591461658e-03</internalNodes>
          <leafValues>
            4.3354731798171997e-01 -1.3242197036743164e-01</leafValues></_>
        <_>
          <internalNodes>
            0 -1 372 -5.6612258777022362e-03</internalNodes>
          <leafValues>
            7.6783818006515503e-01 -7.3819890618324280e-02</leafValues></_>
        <_>
          <internalNodes>
            0 -1 371 -3.3801193349063396e-03</internalNodes>
          <leafValues>
            4.8723211884498596e-01 -1.3320374488830566e-01</leafValues></_>
        <_>
          <internalNodes>
            0 -1 107 -4.8185912892222404e-03</internalNodes>
          <leafValues>
            4.8078498244285583e-01 -1.3307362794876099e-01</leafValues></_>
        <_>
          <internalNodes>
            0 -1 50 9.2490785755217075e-04</internalNodes>
          <leafValues>
            1.0692313313484192e-01 -5.6271600723266602e-01</leafValues></_>
        <_>
          <internalNodes>
            0 -1 256 -1.4399203937500715e-03</internalNodes>
          <leafValues>
            2.9584753513336182e-01 -2.0429033041000366e-01</leafValues></_>
        <_>
          <internalNodes>
            0 -1 354 1.1402013711631298e-02</internalNodes>
          <leafValues>
            6.1493549495935440e-02 -9.1008138656616211e-01</leafValues></_>
        <_>
          <internalNodes>
            0 -1 79 5.6394198909401894e-03</internalNodes>
          <leafValues>
            -1.4061541855335236e-01 4.9084779620170593e-01</leafValues></_>
        <_>
          <internalNodes>
            0 -1 178 -1.8915485125035048e-03</internalNodes>
          <leafValues>
            4.8126652836799622e-01 -1.2079222500324249e-01</leafValues></_>
        <_>
          <internalNodes>
            0 -1 343 -3.8742907345294952e-03</internalNodes>
          <leafValues>
            3.5970449447631836e-01 -1.7164568603038788e-01</leafValues></_>
        <_>
          <internalNodes>
            0 -1 368 2.1009242162108421e-02</internalNodes>
          <leafValues>
            1.2353022396564484e-01 -5.5190092325210571e-01</leafValues></_></weakClassifiers></_>
    <!-- stage 10 -->
    <_>
      <maxWeakCount>19</maxWeakCount>
      <stageThreshold>-1.4956812858581543e+00</stageThreshold>
      <weakClassifiers>
        <_>
          <internalNodes>
            0 -1 96 -2.7991795539855957e-01</internalNodes>
          <leafValues>
            4.7619048506021500e-02 -6.3916832208633423e-01</leafValues></_>
        <_>
          <internalNodes>
            0 -1 426 6.5334299579262733e-03</internalNodes>
          <leafValues>
            -2.7899646759033203e-01 3.5095399618148804e-01</leafValues></_>
        <_>
          <internalNodes>
            0 -1 255 -3.5684742033481598e-02</internalNodes>
          <leafValues>
            3.7856185436248779e-01 -2.1412311494350433e-01</leafValues></_>
        <_>
          <internalNodes>
            0 -1 270 2.5967932306230068e-03</internalNodes>
          <leafValues>
            1.4820338785648346e-01 -5.0216293334960938e-01</leafValues></_>
        <_>
          <internalNodes>
            0 -1 220 -3.9466843008995056e-03</internalNodes>
          <leafValues>
            -2.8220319747924805e-01 2.1721763908863068e-01</leafValues></_>
        <_>
          <internalNodes>
            0 -1 227 1.0462766513228416e-02</internalNodes>
          <leafValues>
            -2.1395248174667358e-01 3.3204606175422668e-01</leafValues></_>
        <_>
          <internalNodes>
            0 -1 75 1.2359343469142914e-01</internalNodes>
          <leafValues>
            -9.8640672862529755e-02 6.1724871397018433e-01</leafValues></_>
        <_>
          <internalNodes>
            0 -1 139 3.0440203845500946e-03</internalNodes>
          <leafValues>
            1.6303098201751709e-01 -4.2640137672424316e-01</leafValues></_>
        <_>
          <internalNodes>
            0 -1 218 -2.6624919846653938e-03</internalNodes>
          <leafValues>
            3.5061171650886536e-01 -1.6990783810615540e-01</leafValues></_>
        <_>
          <internalNodes>
            0 -1 108 2.5390163064002991e-02</internalNodes>
          <leafValues>
            -1.3244695961475372e-01 4.6801540255546570e-01</leafValues></_>
        <_>
          <internalNodes>
            0 -1 181 -2.3955356329679489e-02</internalNodes>
          <leafValues>
            -7.8146839141845703e-01 8.1745468080043793e-02</leafValues></_>
        <_>
          <internalNodes>
            0 -1 156 2.1840823814272881e-02</internalNodes>
          <leafValues>
            6.5867774188518524e-02 -6.8673181533813477e-01</leafValues></_>
        <_>
          <internalNodes>
            0 -1 42 -5.0574196502566338e-03</internalNodes>
          <leafValues>
            3.9902743697166443e-01 -1.5078851580619812e-01</leafValues></_>
        <_>
          <internalNodes>
            0 -1 288 5.6159286759793758e-04</internalNodes>
          <leafValues>
            1.8229860067367554e-01 -3.2695078849792480e-01</leafValues></_>
        <_>
          <internalNodes>
            0 -1 375 -1.2820219993591309e-01</internalNodes>
          <leafValues>
            8.3940297365188599e-01 -8.2874692976474762e-02</leafValues></_>
        <_>
          <internalNodes>
            0 -1 414 6.5103340893983841e-03</internalNodes>
          <leafValues>
            -1.0927804559469223e-01 4.8092350363731384e-01</leafValues></_>
        <_>
          <internalNodes>
            0 -1 441 2.8748561162501574e-03</internalNodes>
          <leafValues>
            -1.2166979163885117e-01 4.1326946020126343e-01</leafValues></_>
        <_>
          <internalNodes>
            0 -1 125 3.8693547248840332e-01</internalNodes>
          <leafValues>
            -1.3326293230056763e-01 4.0477848052978516e-01</leafValues></_>
        <_>
          <internalNodes>
            0 -1 126 -1.5389266610145569e-01</internalNodes>
          <leafValues>
            7.6835763454437256e-01 -8.1972017884254456e-02</leafValues></_></weakClassifiers></_>
    <!-- stage 11 -->
    <_>
      <maxWeakCount>15</maxWeakCount>
      <stageThreshold>-1.4663023948669434e+00</stageThreshold>
      <weakClassifiers>
        <_>
          <internalNodes>
            0 -1 277 -9.9085010588169098e-02</internalNodes>
          <leafValues>
            2.8448274731636047e-01 -5.8705884218215942e-01</leafValues></_>
        <_>
          <internalNodes>
            0 -1 262 -1.4655547216534615e-02</internalNodes>
          <leafValues>
            3.5559546947479248e-01 -2.9860523343086243e-01</leafValues></_>
        <_>
          <internalNodes>
            0 -1 349 -1.5766820311546326e-01</internalNodes>
          <leafValues>
            4.0952891111373901e-01 -2.0003806054592133e-01</leafValues></_>
        <_>
          <internalNodes>
            0 -1 440 8.2479417324066162e-03</internalNodes>
          <leafValues>
            -1.5463805198669434e-01 5.5799770355224609e-01</leafValues></_>
        <_>
          <internalNodes>
            0 -1 137 4.4271461665630341e-03</internalNodes>
          <leafValues>
            -2.3548541963100433e-01 3.5156214237213135e-01</leafValues></_>
        <_>
          <internalNodes>
            0 -1 357 -3.6241661291569471e-03</internalNodes>
          <leafValues>
            6.7666721343994141e-01 -1.0695368051528931e-01</leafValues></_>
        <_>
          <internalNodes>
            0 -1 309 1.4108835785009433e-05</internalNodes>
          <leafValues>
            -2.6468232274055481e-01 2.6082900166511536e-01</leafValues></_>
        <_>
          <internalNodes>
            0 -1 160 9.1930938651785254e-04</internalNodes>
          <leafValues>
            -1.4779406785964966e-01 4.8228082060813904e-01</leafValues></_>
        <_>
          <internalNodes>
            0 -1 170 -2.8312589973211288e-02</internalNodes>
          <leafValues>
            6.2990516424179077e-01 -1.2422708421945572e-01</leafValues></_>
        <_>
          <internalNodes>
            0 -1 289 1.8385380972176790e-03</internalNodes>
          <leafValues>
            1.6285747289657593e-01 -6.4682251214981079e-01</leafValues></_>
        <_>
          <internalNodes>
            0 -1 140 3.0874148942530155e-03</internalNodes>
          <leafValues>
            -1.3597810268402100e-01 6.4816522598266602e-01</leafValues></_>
        <_>
          <internalNodes>
            0 -1 154 -1.5105920283531304e-05</internalNodes>
          <leafValues>
            1.9962663948535919e-01 -3.7993040680885315e-01</leafValues></_>
        <_>
          <internalNodes>
            0 -1 0 -1.4796816976740956e-03</internalNodes>
          <leafValues>
            -5.7053482532501221e-01 1.2518602609634399e-01</leafValues></_>
        <_>
          <internalNodes>
            0 -1 417 -1.3486443087458611e-02</internalNodes>
          <leafValues>
            4.0281665325164795e-01 -1.9479002058506012e-01</leafValues></_>
        <_>
          <internalNodes>
            0 -1 47 4.2286613024771214e-03</internalNodes>
          <leafValues>
            -1.1700032651424408e-01 5.5032402276992798e-01</leafValues></_></weakClassifiers></_>
    <!-- stage 12 -->
    <_>
      <maxWeakCount>21</maxWeakCount>
      <stageThreshold>-1.5639253854751587e+00</stageThreshold>
      <weakClassifiers>
        <_>
          <internalNodes>
            0 -1 109 3.6256339401006699e-02</internalNodes>
          <leafValues>
            -5.9401196241378784e-01 2.2900763154029846e-01</leafValues></_>
        <_>
          <internalNodes>
            0 -1 11 -6.1879154294729233e-02</internalNodes>
          <leafValues>
            3.4159356355667114e-01 -2.6950246095657349e-01</leafValues></_>
        <_>
          <internalNodes>
            0 -1 26 -9.6782464534044266e-03</internalNodes>
          <leafValues>
            7.6170587539672852e-01 -9.5677651464939117e-02</leafValues></_>
        <_>
          <internalNodes>
            0 -1 151 -1.0194974020123482e-03</internalNodes>
          <leafValues>
            4.5398250222206116e-01 -1.3724263012409210e-01</leafValues></_>
        <_>
          <internalNodes>
            0 -1 60 -9.8524600616656244e-05</internalNodes>
          <leafValues>
            2.1513932943344116e-01 -3.1472098827362061e-01</leafValues></_>
        <_>
          <internalNodes>
            0 -1 216 6.3576232641935349e-03</internalNodes>
          <leafValues>
            -2.2431528568267822e-01 3.3654218912124634e-01</leafValues></_>
        <_>
          <internalNodes>
            0 -1 266 5.5098332464694977e-02</internalNodes>
          <leafValues>
            -1.5013006329536438e-01 5.6253892183303833e-01</leafValues></_>
        <_>
          <internalNodes>
            0 -1 323 -1.2756664546031971e-05</internalNodes>
          <leafValues>
            2.0316676795482635e-01 -3.2560274004936218e-01</leafValues></_>
        <_>
          <internalNodes>
            0 -1 164 7.8769568353891373e-03</internalNodes>
          <leafValues>
            -8.2377910614013672e-02 7.7960878610610962e-01</leafValues></_>
        <_>
          <internalNodes>
            0 -1 131 7.1605679113417864e-04</internalNodes>
          <leafValues>
            -1.0667516291141510e-01 5.2819091081619263e-01</leafValues></_>
        <_>
          <internalNodes>
            0 -1 430 5.8899458963423967e-05</internalNodes>
          <leafValues>
            -2.5872173905372620e-01 2.6774176955223083e-01</leafValues></_>
        <_>
          <internalNodes>
            0 -1 253 3.2815493643283844e-02</internalNodes>
          <leafValues>
            8.8756933808326721e-02 -7.1741396188735962e-01</leafValues></_>
        <_>
          <internalNodes>
            0 -1 179 -2.3012110032141209e-03</internalNodes>
          <leafValues>
            5.5508935451507568e-01 -1.4105883240699768e-01</leafValues></_>
        <_>
          <internalNodes>
            0 -1 202 -4.5546449837274849e-04</internalNodes>
          <leafValues>
            -3.9733517169952393e-01 1.9087205827236176e-01</leafValues></_>
        <_>
          <internalNodes>
            0 -1 52 -1.9648238085210323e-03</internalNodes>
          <leafValues>
            -8.5750758647918701e-01 7.0396311581134796e-02</leafValues></_>
        <_>
          <internalNodes>
            0 -1 433 5.3948926506564021e-04</internalNodes>
          <leafValues>
            -1.3735358417034149e-01 5.2790856361389160e-01</leafValues></_>
        <_>
          <internalNodes>
            0 -1 331 1.8761230632662773e-02</internalNodes>
          <leafValues>
            1.3610208034515381e-01 -5.0122654438018799e-01</leafValues></_>
        <_>
          <internalNodes>
            0 -1 318 -2.9028891585767269e-03</internalNodes>
          <leafValues>
            3.4948980808258057e-01 -2.3698084056377411e-01</leafValues></_>
        <_>
          <internalNodes>
            0 -1 169 -8.3763524889945984e-03</internalNodes>
          <leafValues>
            5.5990409851074219e-01 -1.2869840860366821e-01</leafValues></_>
        <_>
          <internalNodes>
            0 -1 224 -2.6194681413471699e-04</internalNodes>
          <leafValues>
            -4.2394769191741943e-01 1.6516773402690887e-01</leafValues></_>
        <_>
          <internalNodes>
            0 -1 387 7.7659176895394921e-05</internalNodes>
          <leafValues>
            1.5209569036960602e-01 -4.2213082313537598e-01</leafValues></_></weakClassifiers></_>
    <!-- stage 13 -->
    <_>
      <maxWeakCount>16</maxWeakCount>
      <stageThreshold>-1.6926631927490234e+00</stageThreshold>
      <weakClassifiers>
        <_>
          <internalNodes>
            0 -1 425 -2.3278297856450081e-02</internalNodes>
          <leafValues>
            2.7819550037384033e-01 -6.0384154319763184e-01</leafValues></_>
        <_>
          <internalNodes>
            0 -1 351 -6.7308498546481133e-04</internalNodes>
          <leafValues>
            3.5000506043434143e-01 -4.0035578608512878e-01</leafValues></_>
        <_>
          <internalNodes>
            0 -1 136 1.5458829700946808e-02</internalNodes>
          <leafValues>
            1.6803903877735138e-01 -6.8181651830673218e-01</leafValues></_>
        <_>
          <internalNodes>
            0 -1 450 1.3047317042946815e-03</internalNodes>
          <leafValues>
            8.6668431758880615e-02 -7.4401378631591797e-01</leafValues></_>
        <_>
          <internalNodes>
            0 -1 142 -5.2625788375735283e-03</internalNodes>
          <leafValues>
            6.2252855300903320e-01 -1.4585928618907928e-01</leafValues></_>
        <_>
          <internalNodes>
            0 -1 207 -1.4073830097913742e-02</internalNodes>
          <leafValues>
            5.1761049032211304e-01 -1.3312147557735443e-01</leafValues></_>
        <_>
          <internalNodes>
            0 -1 101 2.9232958331704140e-03</internalNodes>
          <leafValues>
            -1.3849580287933350e-01 5.8046960830688477e-01</leafValues></_>
        <_>
          <internalNodes>
            0 -1 329 -4.8002740368247032e-03</internalNodes>
          <leafValues>
            3.5250380635261536e-01 -2.3583112657070160e-01</leafValues></_>
        <_>
          <internalNodes>
            0 -1 193 -2.1079089492559433e-03</internalNodes>
          <leafValues>
            3.9354383945465088e-01 -1.7926970124244690e-01</leafValues></_>
        <_>
          <internalNodes>
            0 -1 313 1.2776064977515489e-04</internalNodes>
          <leafValues>
            -2.5718834996223450e-01 3.0022576451301575e-01</leafValues></_>
        <_>
          <internalNodes>
            0 -1 248 -3.2625140738673508e-04</internalNodes>
          <leafValues>
            -6.0447978973388672e-01 1.2117823213338852e-01</leafValues></_>
        <_>
          <internalNodes>
            0 -1 380 -1.5828587114810944e-02</internalNodes>
          <leafValues>
            7.7983224391937256e-01 -1.0947398841381073e-01</leafValues></_>
        <_>
          <internalNodes>
            0 -1 394 2.0073186606168747e-03</internalNodes>
          <leafValues>
            -1.4940325915813446e-01 4.3960893154144287e-01</leafValues></_>
        <_>
          <internalNodes>
            0 -1 392 -1.3490071520209312e-02</internalNodes>
          <leafValues>
            -6.6494721174240112e-01 1.1152365803718567e-01</leafValues></_>
        <_>
          <internalNodes>
            0 -1 190 -1.5534547856077552e-05</internalNodes>
          <leafValues>
            3.0244958400726318e-01 -2.4480931460857391e-01</leafValues></_>
        <_>
          <internalNodes>
            0 -1 36 1.2229408603161573e-03</internalNodes>
          <leafValues>
            -1.3983702659606934e-01 4.9189323186874390e-01</leafValues></_></weakClassifiers></_>
    <!-- stage 14 -->
    <_>
      <maxWeakCount>19</maxWeakCount>
      <stageThreshold>-1.5468753576278687e+00</stageThreshold>
      <weakClassifiers>
        <_>
          <internalNodes>
            0 -1 31 -1.7111882567405701e-01</internalNodes>
          <leafValues>
            1.9727891683578491e-01 -6.0439562797546387e-01</leafValues></_>
        <_>
          <internalNodes>
            0 -1 346 1.4853009954094887e-02</internalNodes>
          <leafValues>
            -2.3254345357418060e-01 5.5800491571426392e-01</leafValues></_>
        <_>
          <internalNodes>
            0 -1 382 1.0430330038070679e-01</internalNodes>
          <leafValues>
            -1.1664950847625732e-01 7.1774971485137939e-01</leafValues></_>
        <_>
          <internalNodes>
            0 -1 336 -1.1694583110511303e-02</internalNodes>
          <leafValues>
            6.4471095800399780e-01 -1.2174612283706665e-01</leafValues></_>
        <_>
          <internalNodes>
            0 -1 83 -1.6166236996650696e-01</internalNodes>
          <leafValues>
            5.9871584177017212e-01 -1.3333691656589508e-01</leafValues></_>
        <_>
          <internalNodes>
            0 -1 135 9.9325031042098999e-03</internalNodes>
          <leafValues>
            1.6935718059539795e-01 -4.5272955298423767e-01</leafValues></_>
        <_>
          <internalNodes>
            0 -1 89 1.0130503214895725e-02</internalNodes>
          <leafValues>
            -1.6984310746192932e-01 4.8940160870552063e-01</leafValues></_>
        <_>
          <internalNodes>
            0 -1 451 -2.7993030380457640e-04</internalNodes>
          <leafValues>
            -3.3107000589370728e-01 2.3962096869945526e-01</leafValues></_>
        <_>
          <internalNodes>
            0 -1 39 -5.7336095720529556e-02</internalNodes>
          <leafValues>
            -6.8615269660949707e-01 1.1806690692901611e-01</leafValues></_>
        <_>
          <internalNodes>
            0 -1 396 -2.9465202242136002e-02</internalNodes>
          <leafValues>
            8.4361577033996582e-01 -9.6337489783763885e-02</leafValues></_>
        <_>
          <internalNodes>
            0 -1 443 3.0034352676011622e-05</internalNodes>
          <leafValues>
            -2.2355689108371735e-01 3.5358315706253052e-01</leafValues></_>
        <_>
          <internalNodes>
            0 -1 211 -2.9745983192697167e-04</internalNodes>
          <leafValues>
            3.5194638371467590e-01 -2.2522209584712982e-01</leafValues></_>
        <_>
          <internalNodes>
            0 -1 285 7.8904345631599426e-02</internalNodes>
          <leafValues>
            1.2655176222324371e-01 -6.7461800575256348e-01</leafValues></_>
        <_>
          <internalNodes>
            0 -1 103 5.3692731307819486e-04</internalNodes>
          <leafValues>
            -2.4300354719161987e-01 3.8521718978881836e-01</leafValues></_>
        <_>
          <internalNodes>
            0 -1 390 -7.2542233392596245e-03</internalNodes>
          <leafValues>
            4.5611998438835144e-01 -1.4708007872104645e-01</leafValues></_>
        <_>
          <internalNodes>
            0 -1 325 -7.0437848567962646e-02</internalNodes>
          <leafValues>
            -8.8453888893127441e-01 8.4040112793445587e-02</leafValues></_>
        <_>
          <internalNodes>
            0 -1 340 1.4410713315010071e-01</internalNodes>
          <leafValues>
            -1.3306240737438202e-01 5.7801270484924316e-01</leafValues></_>
        <_>
          <internalNodes>
            0 -1 282 7.3450719937682152e-03</internalNodes>
          <leafValues>
            1.6473747789859772e-01 -5.5567246675491333e-01</leafValues></_>
        <_>
          <internalNodes>
            0 -1 43 5.1014861091971397e-03</internalNodes>
          <leafValues>
            -1.0512009263038635e-01 8.3741885423660278e-01</leafValues></_></weakClassifiers></_>
    <!-- stage 15 -->
    <_>
      <maxWeakCount>12</maxWeakCount>
      <stageThreshold>-1.5191898345947266e+00</stageThreshold>
      <weakClassifiers>
        <_>
          <internalNodes>
            0 -1 30 3.0586817301809788e-03</internalNodes>
          <leafValues>
            -6.3443541526794434e-01 2.5835865736007690e-01</leafValues></_>
        <_>
          <internalNodes>
            0 -1 291 4.8112095100805163e-04</internalNodes>
          <leafValues>
            2.9030522704124451e-01 -4.4990354776382446e-01</leafValues></_>
        <_>
          <internalNodes>
            0 -1 27 -1.8896112218499184e-02</internalNodes>
          <leafValues>
            -5.8415764570236206e-01 2.0114903151988983e-01</leafValues></_>
        <_>
          <internalNodes>
            0 -1 234 2.0009737461805344e-02</internalNodes>
          <leafValues>
            1.5859505534172058e-01 -6.1873835325241089e-01</leafValues></_>
        <_>
          <internalNodes>
            0 -1 66 -4.4937513303011656e-04</internalNodes>
          <leafValues>
            3.1679612398147583e-01 -3.5862803459167480e-01</leafValues></_>
        <_>
          <internalNodes>
            0 -1 437 -2.7577292639762163e-03</internalNodes>
          <leafValues>
            6.5785640478134155e-01 -1.9188268482685089e-01</leafValues></_>
        <_>
          <internalNodes>
            0 -1 385 7.6235254528000951e-04</internalNodes>
          <leafValues>
            2.4475663900375366e-01 -4.2748892307281494e-01</leafValues></_>
        <_>
          <internalNodes>
            0 -1 142 5.1171332597732544e-03</internalNodes>
          <leafValues>
            -1.4433845877647400e-01 7.8216040134429932e-01</leafValues></_>
        <_>
          <internalNodes>
            0 -1 397 -1.0208465391770005e-03</internalNodes>
          <leafValues>
            5.2752959728240967e-01 -1.9625788927078247e-01</leafValues></_>
        <_>
          <internalNodes>
            0 -1 257 3.8506509736180305e-04</internalNodes>
          <leafValues>
            -1.8587119877338409e-01 5.6519353389739990e-01</leafValues></_>
        <_>
          <internalNodes>
            0 -1 245 -1.8358290253672749e-04</internalNodes>
          <leafValues>
            -4.6830829977989197e-01 1.9442483782768250e-01</leafValues></_>
        <_>
          <internalNodes>
            0 -1 408 2.1468196064233780e-02</internalNodes>
          <leafValues>
            -1.2439126521348953e-01 7.6218622922897339e-01</leafValues></_></weakClassifiers></_>
    <!-- stage 16 -->
    <_>
      <maxWeakCount>15</maxWeakCount>
      <stageThreshold>-1.6514422893524170e+00</stageThreshold>
      <weakClassifiers>
        <_>
          <internalNodes>
            0 -1 113 -7.8516453504562378e-04</internalNodes>
          <leafValues>
            8.7378643453121185e-02 -6.3684213161468506e-01</leafValues></_>
        <_>
          <internalNodes>
            0 -1 61 1.3978851711726747e-05</internalNodes>
          <leafValues>
            -3.8127899169921875e-01 3.0922484397888184e-01</leafValues></_>
        <_>
          <internalNodes>
            0 -1 5 4.6275995671749115e-02</internalNodes>
          <leafValues>
            1.7802995443344116e-01 -7.0653432607650757e-01</leafValues></_>
        <_>
          <internalNodes>
            0 -1 422 1.7191102728247643e-02</internalNodes>
          <leafValues>
            -1.5776385366916656e-01 5.7042211294174194e-01</leafValues></_>
        <_>
          <internalNodes>
            0 -1 281 -1.4290561666712165e-03</internalNodes>
          <leafValues>
            5.1750767230987549e-01 -1.7953324317932129e-01</leafValues></_>
        <_>
          <internalNodes>
            0 -1 383 1.7490819096565247e-02</internalNodes>
          <leafValues>
            -1.5917328000068665e-01 5.6075817346572876e-01</leafValues></_>
        <_>
          <internalNodes>
            0 -1 80 1.1991523206233978e-02</internalNodes>
          <leafValues>
            -1.3374495506286621e-01 6.0005420446395874e-01</leafValues></_>
        <_>
          <internalNodes>
            0 -1 134 3.9621397852897644e-02</internalNodes>
          <leafValues>
            -2.0745944976806641e-01 4.8275884985923767e-01</leafValues></_>
        <_>
          <internalNodes>
            0 -1 352 -5.7696783915162086e-03</internalNodes>
          <leafValues>
            4.3426704406738281e-01 -2.0875321328639984e-01</leafValues></_>
        <_>
          <internalNodes>
            0 -1 225 4.6674680197611451e-04</internalNodes>
          <leafValues>
            1.9272407889366150e-01 -4.7592583298683167e-01</leafValues></_>
        <_>
          <internalNodes>
            0 -1 250 2.7344548143446445e-03</internalNodes>
          <leafValues>
            -2.5921851396560669e-01 3.2151636481285095e-01</leafValues></_>
        <_>
          <internalNodes>
            0 -1 328 1.5262274246197194e-05</internalNodes>
          <leafValues>
            -2.6704204082489014e-01 3.5407087206840515e-01</leafValues></_>
        <_>
          <internalNodes>
            0 -1 63 -4.4111747411079705e-04</internalNodes>
          <leafValues>
            1.9234110414981842e-01 -4.2097383737564087e-01</leafValues></_>
        <_>
          <internalNodes>
            0 -1 310 -9.8990416154265404e-03</internalNodes>
          <leafValues>
            4.7046983242034912e-01 -1.7469821870326996e-01</leafValues></_>
        <_>
          <internalNodes>
            0 -1 100 -3.0121380090713501e-01</internalNodes>
          <leafValues>
            4.4435396790504456e-01 -1.7284291982650757e-01</leafValues></_></weakClassifiers></_>
    <!-- stage 17 -->
    <_>
      <maxWeakCount>10</maxWeakCount>
      <stageThreshold>-1.6750241518020630e+00</stageThreshold>
      <weakClassifiers>
        <_>
          <internalNodes>
            0 -1 82 2.1588715910911560e-01</internalNodes>
          <leafValues>
            -6.2522524595260620e-01 4.0823969244956970e-01</leafValues></_>
        <_>
          <internalNodes>
            0 -1 55 -5.8529624948278069e-04</internalNodes>
          <leafValues>
            4.4677659869194031e-01 -3.0878013372421265e-01</leafValues></_>
        <_>
          <internalNodes>
            0 -1 322 1.0285015741828829e-04</internalNodes>
          <leafValues>
            2.1730206906795502e-01 -5.0101649761199951e-01</leafValues></_>
        <_>
          <internalNodes>
            0 -1 428 1.3705560377275106e-05</internalNodes>
          <leafValues>
            -3.3095157146453857e-01 3.2684889435768127e-01</leafValues></_>
        <_>
          <internalNodes>
            0 -1 8 -6.9966162554919720e-03</internalNodes>
          <leafValues>
            4.9018475413322449e-01 -1.9123159348964691e-01</leafValues></_>
        <_>
          <internalNodes>
            0 -1 416 6.2830261886119843e-03</internalNodes>
          <leafValues>
            -1.4411912858486176e-01 6.8681877851486206e-01</leafValues></_>
        <_>
          <internalNodes>
            0 -1 403 4.0302071720361710e-03</internalNodes>
          <leafValues>
            -1.1308105289936066e-01 7.3394370079040527e-01</leafValues></_>
        <_>
          <internalNodes>
            0 -1 102 1.7976325005292892e-02</internalNodes>
          <leafValues>
            -1.0408813506364822e-01 7.3110657930374146e-01</leafValues></_>
        <_>
          <internalNodes>
            0 -1 95 -6.3181165605783463e-03</internalNodes>
          <leafValues>
            3.7700802087783813e-01 -2.6539558172225952e-01</leafValues></_>
        <_>
          <internalNodes>
            0 -1 205 6.7909772042185068e-04</internalNodes>
          <leafValues>
            1.5330803394317627e-01 -6.4421826601028442e-01</leafValues></_></weakClassifiers></_>
    <!-- stage 18 -->
    <_>
      <maxWeakCount>14</maxWeakCount>
      <stageThreshold>-1.3723946809768677e+00</stageThreshold>
      <weakClassifiers>
        <_>
          <internalNodes>
            0 -1 22 1.4090600609779358e-01</internalNodes>
          <leafValues>
            -6.4102566242218018e-01 1.8279570341110229e-01</leafValues></_>
        <_>
          <internalNodes>
            0 -1 301 -2.2791055962443352e-02</internalNodes>
          <leafValues>
            -7.5033605098724365e-01 1.2271130830049515e-01</leafValues></_>
        <_>
          <internalNodes>
            0 -1 53 -4.6906825155019760e-03</internalNodes>
          <leafValues>
            3.4713301062583923e-01 -3.2232242822647095e-01</leafValues></_>
        <_>
          <internalNodes>
            0 -1 201 -5.6925870012491941e-04</internalNodes>
          <leafValues>
            -3.7244465947151184e-01 2.4166436493396759e-01</leafValues></_>
        <_>
          <internalNodes>
            0 -1 144 1.1320203542709351e-02</internalNodes>
          <leafValues>
            -1.9502289593219757e-01 4.1766631603240967e-01</leafValues></_>
        <_>
          <internalNodes>
            0 -1 163 -7.7122986316680908e-02</internalNodes>
          <leafValues>
            6.9949954748153687e-01 -1.6937983036041260e-01</leafValues></_>
        <_>
          <internalNodes>
            0 -1 78 -2.4654954671859741e-02</internalNodes>
          <leafValues>
            8.7753200531005859e-01 -5.2769832313060760e-02</leafValues></_>
        <_>
          <internalNodes>
            0 -1 158 -1.0281422175467014e-02</internalNodes>
          <leafValues>
            4.5415067672729492e-01 -1.9742530584335327e-01</leafValues></_>
        <_>
          <internalNodes>
            0 -1 217 2.1188503596931696e-03</internalNodes>
          <leafValues>
            -3.2970201969146729e-01 3.3886894583702087e-01</leafValues></_>
        <_>
          <internalNodes>
            0 -1 350 -7.8264847397804260e-02</internalNodes>
          <leafValues>
            -7.8146004676818848e-01 1.2043888866901398e-01</leafValues></_>
        <_>
          <internalNodes>
            0 -1 389 1.1707254452630877e-03</internalNodes>
          <leafValues>
            -2.4679321050643921e-01 4.7420924901962280e-01</leafValues></_>
        <_>
          <internalNodes>
            0 -1 56 6.7277619382366538e-04</internalNodes>
          <leafValues>
            1.5766882896423340e-01 -5.6785285472869873e-01</leafValues></_>
        <_>
          <internalNodes>
            0 -1 145 -6.4921067096292973e-03</internalNodes>
          <leafValues>
            6.4696830511093140e-01 -1.5916623175144196e-01</leafValues></_>
        <_>
          <internalNodes>
            0 -1 25 1.0366646945476532e-01</internalNodes>
          <leafValues>
            -1.1036791652441025e-01 7.9634726047515869e-01</leafValues></_></weakClassifiers></_>
    <!-- stage 19 -->
    <_>
      <maxWeakCount>11</maxWeakCount>
      <stageThreshold>-1.2478260993957520e+00</stageThreshold>
      <weakClassifiers>
        <_>
          <internalNodes>
            0 -1 130 -1.4995229430496693e-02</internalNodes>
          <leafValues>
            6.0998152941465378e-02 -6.9374549388885498e-01</leafValues></_>
        <_>
          <internalNodes>
            0 -1 22 1.4133486151695251e-01</internalNodes>
          <leafValues>
            -3.2631847262382507e-01 5.0089907646179199e-01</leafValues></_>
        <_>
          <internalNodes>
            0 -1 290 1.7745909281075001e-03</internalNodes>
          <leafValues>
            1.5433880686759949e-01 -6.5060877799987793e-01</leafValues></_>
        <_>
          <internalNodes>
            0 -1 405 1.7343561351299286e-01</internalNodes>
          <leafValues>
            1.4685955643653870e-01 -8.1265586614608765e-01</leafValues></_>
        <_>
          <internalNodes>
            0 -1 419 -1.4410108327865601e-02</internalNodes>
          <leafValues>
            5.5867844820022583e-01 -2.0348818600177765e-01</leafValues></_>
        <_>
          <internalNodes>
            0 -1 298 -4.4298311695456505e-04</internalNodes>
          <leafValues>
            3.0783909559249878e-01 -2.9926317930221558e-01</leafValues></_>
        <_>
          <internalNodes>
            0 -1 284 -3.5673595266416669e-04</internalNodes>
          <leafValues>
            4.2186152935028076e-01 -2.0000557601451874e-01</leafValues></_>
        <_>
          <internalNodes>
            0 -1 157 6.2828719615936279e-02</internalNodes>
          <leafValues>
            -1.4702975749969482e-01 7.7414608001708984e-01</leafValues></_>
        <_>
          <internalNodes>
            0 -1 12 5.1357829943299294e-04</internalNodes>
          <leafValues>
            -1.7207962274551392e-01 4.0353846549987793e-01</leafValues></_>
        <_>
          <internalNodes>
            0 -1 72 2.6697743684053421e-02</internalNodes>
          <leafValues>
            1.4812415838241577e-01 -7.0339989662170410e-01</leafValues></_>
        <_>
          <internalNodes>
            0 -1 280 -1.2979261577129364e-02</internalNodes>
          <leafValues>
            4.3759882450103760e-01 -2.1211659908294678e-01</leafValues></_></weakClassifiers></_>
    <!-- stage 20 -->
    <_>
      <maxWeakCount>17</maxWeakCount>
      <stageThreshold>-1.5091241598129272e+00</stageThreshold>
      <weakClassifiers>
        <_>
          <internalNodes>
            0 -1 229 1.6349456273019314e-03</internalNodes>
          <leafValues>
            -6.2240403890609741e-01 1.6618075966835022e-01</leafValues></_>
        <_>
          <internalNodes>
            0 -1 109 2.3019243031740189e-02</internalNodes>
          <leafValues>
            -3.0819654464721680e-01 4.7036093473434448e-01</leafValues></_>
        <_>
          <internalNodes>
            0 -1 2 -2.6447992771863937e-02</internalNodes>
          <leafValues>
            5.2158802747726440e-01 -2.0155324041843414e-01</leafValues></_>
        <_>
          <internalNodes>
            0 -1 279 -9.4665706157684326e-02</internalNodes>
          <leafValues>
            6.9199126958847046e-01 -1.2683641910552979e-01</leafValues></_>
        <_>
          <internalNodes>
            0 -1 222 -5.7932580821216106e-03</internalNodes>
          <leafValues>
            -4.8012980818748474e-01 1.9932241737842560e-01</leafValues></_>
        <_>
          <internalNodes>
            0 -1 395 1.1154792446177453e-04</internalNodes>
          <leafValues>
            -1.9761320948600769e-01 4.2546316981315613e-01</leafValues></_>
        <_>
          <internalNodes>
            0 -1 98 9.7570015350356698e-04</internalNodes>
          <leafValues>
            -2.1778887510299683e-01 3.8899543881416321e-01</leafValues></_>
        <_>
          <internalNodes>
            0 -1 114 -9.0182368876412511e-04</internalNodes>
          <leafValues>
            2.2176097333431244e-01 -3.5047373175621033e-01</leafValues></_>
        <_>
          <internalNodes>
            0 -1 97 5.3563535213470459e-02</internalNodes>
          <leafValues>
            -9.4045601785182953e-02 8.1217718124389648e-01</leafValues></_>
        <_>
          <internalNodes>
            0 -1 162 1.8881167052313685e-03</internalNodes>
          <leafValues>
            -2.1442610025405884e-01 4.4011762738227844e-01</leafValues></_>
        <_>
          <internalNodes>
            0 -1 334 8.9390948414802551e-04</internalNodes>
          <leafValues>
            1.3454426825046539e-01 -5.8377808332443237e-01</leafValues></_>
        <_>
          <internalNodes>
            0 -1 271 2.2949519916437566e-04</internalNodes>
          <leafValues>
            1.3213759660720825e-01 -5.6780892610549927e-01</leafValues></_>
        <_>
          <internalNodes>
            0 -1 273 2.3118779063224792e-03</internalNodes>
          <leafValues>
            1.3137021660804749e-01 -5.5957841873168945e-01</leafValues></_>
        <_>
          <internalNodes>
            0 -1 332 -2.9175031185150146e-01</internalNodes>
          <leafValues>
            -7.2386133670806885e-01 9.0540334582328796e-02</leafValues></_>
        <_>
          <internalNodes>
            0 -1 21 1.0396148078143597e-02</internalNodes>
          <leafValues>
            9.0652927756309509e-02 -7.3374968767166138e-01</leafValues></_>
        <_>
          <internalNodes>
            0 -1 345 1.3438762834994122e-05</internalNodes>
          <leafValues>
            -2.4296492338180542e-01 3.5608521103858948e-01</leafValues></_>
        <_>
          <internalNodes>
            0 -1 413 -4.5939190313220024e-03</internalNodes>
          <leafValues>
            4.3852782249450684e-01 -1.9172553718090057e-01</leafValues></_></weakClassifiers></_>
    <!-- stage 21 -->
    <_>
      <maxWeakCount>13</maxWeakCount>
      <stageThreshold>-1.6037387847900391e+00</stageThreshold>
      <weakClassifiers>
        <_>
          <internalNodes>
            0 -1 194 2.5332989171147346e-02</internalNodes>
          <leafValues>
            -5.9656161069869995e-01 5.8288770914077759e-01</leafValues></_>
        <_>
          <internalNodes>
            0 -1 57 -2.3991093039512634e-03</internalNodes>
          <leafValues>
            2.9055166244506836e-01 -4.3979060649871826e-01</leafValues></_>
        <_>
          <internalNodes>
            0 -1 231 6.4563788473606110e-02</internalNodes>
          <leafValues>
            2.3689199984073639e-01 -4.7849491238594055e-01</leafValues></_>
        <_>
          <internalNodes>
            0 -1 303 -1.0361414169892669e-03</internalNodes>
          <leafValues>
            -8.1338673830032349e-01 1.0675667226314545e-01</leafValues></_>
        <_>
          <internalNodes>
            0 -1 407 -6.6705496283248067e-04</internalNodes>
          <leafValues>
            3.9698836207389832e-01 -2.6907670497894287e-01</leafValues></_>
        <_>
          <internalNodes>
            0 -1 411 -2.1795317530632019e-02</internalNodes>
          <leafValues>
            5.6745904684066772e-01 -1.4487777650356293e-01</leafValues></_>
        <_>
          <internalNodes>
            0 -1 335 -6.1263721436262131e-03</internalNodes>
          <leafValues>
            8.4705704450607300e-01 -9.6302524209022522e-02</leafValues></_>
        <_>
          <internalNodes>
            0 -1 6 6.4191296696662903e-02</internalNodes>
          <leafValues>
            -1.8841372430324554e-01 4.4846197962760925e-01</leafValues></_>
        <_>
          <internalNodes>
            0 -1 35 2.0299325697124004e-03</internalNodes>
          <leafValues>
            3.0984425544738770e-01 -3.5149937868118286e-01</leafValues></_>
        <_>
          <internalNodes>
            0 -1 287 9.7535259556025267e-04</internalNodes>
          <leafValues>
            1.1251812428236008e-01 -6.7622613906860352e-01</leafValues></_>
        <_>
          <internalNodes>
            0 -1 367 6.3396687619388103e-04</internalNodes>
          <leafValues>
            -2.0191693305969238e-01 4.1542273759841919e-01</leafValues></_>
        <_>
          <internalNodes>
            0 -1 141 4.5817047357559204e-03</internalNodes>
          <leafValues>
            -9.0678252279758453e-02 8.8991725444793701e-01</leafValues></_>
        <_>
          <internalNodes>
            0 -1 275 -1.1426864657551050e-03</internalNodes>
          <leafValues>
            -3.1766378879547119e-01 2.4993075430393219e-01</leafValues></_></weakClassifiers></_>
    <!-- stage 22 -->
    <_>
      <maxWeakCount>13</maxWeakCount>
      <stageThreshold>-1.6781026124954224e+00</stageThreshold>
      <weakClassifiers>
        <_>
          <internalNodes>
            0 -1 316 -2.2236984223127365e-02</internalNodes>
          <leafValues>
            2.9268291592597961e-01 -6.4089775085449219e-01</leafValues></_>
        <_>
          <internalNodes>
            0 -1 241 7.8685494372621179e-04</internalNodes>
          <leafValues>
            1.3425362110137939e-01 -6.9706726074218750e-01</leafValues></_>
        <_>
          <internalNodes>
            0 -1 208 4.8237852752208710e-03</internalNodes>
          <leafValues>
            -2.7005872130393982e-01 4.5157650113105774e-01</leafValues></_>
        <_>
          <internalNodes>
            0 -1 91 -4.7280289232730865e-02</internalNodes>
          <leafValues>
            -3.8559332489967346e-01 2.4464491009712219e-01</leafValues></_>
        <_>
          <internalNodes>
            0 -1 221 9.6747651696205139e-03</internalNodes>
          <leafValues>
            -2.1284024417400360e-01 5.7519388198852539e-01</leafValues></_>
        <_>
          <internalNodes>
            0 -1 192 -1.5851654112339020e-02</internalNodes>
          <leafValues>
            4.4792258739471436e-01 -2.1802490949630737e-01</leafValues></_>
        <_>
          <internalNodes>
            0 -1 155 -9.1955121606588364e-03</internalNodes>
          <leafValues>
            6.0360562801361084e-01 -1.4968825876712799e-01</leafValues></_>
        <_>
          <internalNodes>
            0 -1 148 -7.5372112914919853e-03</internalNodes>
          <leafValues>
            5.7070052623748779e-01 -1.6532616317272186e-01</leafValues></_>
        <_>
          <internalNodes>
            0 -1 304 -1.4158738849801011e-05</internalNodes>
          <leafValues>
            3.1326949596405029e-01 -3.1929424405097961e-01</leafValues></_>
        <_>
          <internalNodes>
            0 -1 132 7.7898139134049416e-03</internalNodes>
          <leafValues>
            -2.5829219818115234e-01 4.4729089736938477e-01</leafValues></_>
        <_>
          <internalNodes>
            0 -1 17 -1.1950817704200745e-01</internalNodes>
          <leafValues>
            6.2189418077468872e-01 -1.3850663602352142e-01</leafValues></_>
        <_>
          <internalNodes>
            0 -1 293 -3.7022186443209648e-03</internalNodes>
          <leafValues>
            6.9522088766098022e-01 -1.2383790314197540e-01</leafValues></_>
        <_>
          <internalNodes>
            0 -1 263 1.8459492130205035e-03</internalNodes>
          <leafValues>
            -2.0384234189987183e-01 4.2319601774215698e-01</leafValues></_></weakClassifiers></_>
    <!-- stage 23 -->
    <_>
      <maxWeakCount>12</maxWeakCount>
      <stageThreshold>-1.2659718990325928e+00</stageThreshold>
      <weakClassifiers>
        <_>
          <internalNodes>
            0 -1 314 -4.1242949664592743e-02</internalNodes>
          <leafValues>
            5.2222222089767456e-01 -5.8561640977859497e-01</leafValues></_>
        <_>
          <internalNodes>
            0 -1 116 -2.4793721735477448e-02</internalNodes>
          <leafValues>
            -5.4456615447998047e-01 2.2409300506114960e-01</leafValues></_>
        <_>
          <internalNodes>
            0 -1 185 -2.2180334199219942e-03</internalNodes>
          <leafValues>
            6.0405892133712769e-01 -2.1354444324970245e-01</leafValues></_>
        <_>
          <internalNodes>
            0 -1 251 -5.7074241340160370e-04</internalNodes>
          <leafValues>
            -5.4542541503906250e-01 2.2857463359832764e-01</leafValues></_>
        <_>
          <internalNodes>
            0 -1 14 2.0580269396305084e-02</internalNodes>
          <leafValues>
            1.5638402104377747e-01 -8.8496500253677368e-01</leafValues></_>
        <_>
          <internalNodes>
            0 -1 442 3.1985677778720856e-03</internalNodes>
          <leafValues>
            -3.0464532971382141e-01 4.3896332383155823e-01</leafValues></_>
        <_>
          <internalNodes>
            0 -1 378 -2.8401878662407398e-03</internalNodes>
          <leafValues>
            5.7157695293426514e-01 -1.7559587955474854e-01</leafValues></_>
        <_>
          <internalNodes>
            0 -1 20 -1.4971253462135792e-02</internalNodes>
          <leafValues>
            7.2096556425094604e-01 -1.4745898544788361e-01</leafValues></_>
        <_>
          <internalNodes>
            0 -1 132 8.6671765893697739e-03</internalNodes>
          <leafValues>
            -1.7201431095600128e-01 5.1782482862472534e-01</leafValues></_>
        <_>
          <internalNodes>
            0 -1 177 1.7625056207180023e-03</internalNodes>
          <leafValues>
            -1.8708415329456329e-01 5.4803657531738281e-01</leafValues></_>
        <_>
          <internalNodes>
            0 -1 188 1.7104470171034336e-03</internalNodes>
          <leafValues>
            1.9051192700862885e-01 -5.5915027856826782e-01</leafValues></_>
        <_>
          <internalNodes>
            0 -1 358 -5.3571257740259171e-03</internalNodes>
          <leafValues>
            6.6201478242874146e-01 -1.6187655925750732e-01</leafValues></_></weakClassifiers></_>
    <!-- stage 24 -->
    <_>
      <maxWeakCount>9</maxWeakCount>
      <stageThreshold>-1.4971338510513306e+00</stageThreshold>
      <weakClassifiers>
        <_>
          <internalNodes>
            0 -1 431 -9.2010921798646450e-04</internalNodes>
          <leafValues>
            3.6805555224418640e-01 -6.3138687610626221e-01</leafValues></_>
        <_>
          <internalNodes>
            0 -1 10 9.5646470785140991e-02</internalNodes>
          <leafValues>
            -3.5359969735145569e-01 5.1730316877365112e-01</leafValues></_>
        <_>
          <internalNodes>
            0 -1 105 -4.0446601808071136e-02</internalNodes>
          <leafValues>
            -8.1549590826034546e-01 1.7568226158618927e-01</leafValues></_>
        <_>
          <internalNodes>
            0 -1 424 1.2872058898210526e-02</internalNodes>
          <leafValues>
            -2.2545491158962250e-01 5.5281233787536621e-01</leafValues></_>
        <_>
          <internalNodes>
            0 -1 366 3.5861935466527939e-03</internalNodes>
          <leafValues>
            4.2415300011634827e-01 -3.6668604612350464e-01</leafValues></_>
        <_>
          <internalNodes>
            0 -1 324 -7.0788087323307991e-03</internalNodes>
          <leafValues>
            -8.1118541955947876e-01 1.7048598825931549e-01</leafValues></_>
        <_>
          <internalNodes>
            0 -1 230 2.4153790436685085e-03</internalNodes>
          <leafValues>
            -1.7873503267765045e-01 5.6265115737915039e-01</leafValues></_>
        <_>
          <internalNodes>
            0 -1 4 -3.4650988876819611e-02</internalNodes>
          <leafValues>
            4.3503803014755249e-01 -2.8071340918540955e-01</leafValues></_>
        <_>
          <internalNodes>
            0 -1 356 -3.5781469196081161e-03</internalNodes>
          <leafValues>
            4.0618476271629333e-01 -2.1265541017055511e-01</leafValues></_></weakClassifiers></_>
    <!-- stage 25 -->
    <_>
      <maxWeakCount>19</maxWeakCount>
      <stageThreshold>-1.3031628131866455e+00</stageThreshold>
      <weakClassifiers>
        <_>
          <internalNodes>
            0 -1 167 1.5176733955740929e-02</internalNodes>
          <leafValues>
            -6.5099716186523438e-01 -3.4090910106897354e-02</leafValues></_>
        <_>
          <internalNodes>
            0 -1 42 -9.8632229492068291e-03</internalNodes>
          <leafValues>
            6.7168951034545898e-01 -1.8963953852653503e-01</leafValues></_>
        <_>
          <internalNodes>
            0 -1 209 -2.4133283644914627e-02</internalNodes>
          <leafValues>
            4.8510596156120300e-01 -1.5190385282039642e-01</leafValues></_>
        <_>
          <internalNodes>
            0 -1 235 -4.5033128117211163e-04</internalNodes>
          <leafValues>
            2.8544709086418152e-01 -2.1374171972274780e-01</leafValues></_>
        <_>
          <internalNodes>
            0 -1 127 4.3986998498439789e-03</internalNodes>
          <leafValues>
            1.5846195816993713e-01 -4.2187601327896118e-01</leafValues></_>
        <_>
          <internalNodes>
            0 -1 299 -6.4297707285732031e-04</internalNodes>
          <leafValues>
            2.9638206958770752e-01 -2.1973489224910736e-01</leafValues></_>
        <_>
          <internalNodes>
            0 -1 214 1.9656941294670105e-03</internalNodes>
          <leafValues>
            -1.7657019197940826e-01 3.8148167729377747e-01</leafValues></_>
        <_>
          <internalNodes>
            0 -1 146 -4.7545348934363574e-05</internalNodes>
          <leafValues>
            2.3094832897186279e-01 -3.1757590174674988e-01</leafValues></_>
        <_>
          <internalNodes>
            0 -1 73 7.4148535728454590e-02</internalNodes>
          <leafValues>
            8.4148891270160675e-02 -8.8016730546951294e-01</leafValues></_>
        <_>
          <internalNodes>
            0 -1 187 -2.2183783585205674e-04</internalNodes>
          <leafValues>
            2.1406027674674988e-01 -3.1133118271827698e-01</leafValues></_>
        <_>
          <internalNodes>
            0 -1 36 1.2048461940139532e-03</internalNodes>
          <leafValues>
            -1.7605407536029816e-01 4.8419159650802612e-01</leafValues></_>
        <_>
          <internalNodes>
            0 -1 438 5.6935328757390380e-05</internalNodes>
          <leafValues>
            -2.8946277499198914e-01 2.8693225979804993e-01</leafValues></_>
        <_>
          <internalNodes>
            0 -1 112 -6.2323361635208130e-02</internalNodes>
          <leafValues>
            -8.1425040960311890e-01 9.8673038184642792e-02</leafValues></_>
        <_>
          <internalNodes>
            0 -1 106 2.6746336370706558e-02</internalNodes>
          <leafValues>
            1.2561054527759552e-01 -5.6910508871078491e-01</leafValues></_>
        <_>
          <internalNodes>
            0 -1 421 2.7421038248576224e-04</internalNodes>
          <leafValues>
            -2.0949614048004150e-01 3.5301411151885986e-01</leafValues></_>
        <_>
          <internalNodes>
            0 -1 321 2.2205187007784843e-02</internalNodes>
          <leafValues>
            1.6197620332241058e-01 -4.8191449046134949e-01</leafValues></_>
        <_>
          <internalNodes>
            0 -1 370 4.4191088527441025e-03</internalNodes>
          <leafValues>
            -1.7183552682399750e-01 4.8224750161170959e-01</leafValues></_>
        <_>
          <internalNodes>
            0 -1 65 -3.1997304176911712e-04</internalNodes>
          <leafValues>
            2.8476873040199280e-01 -2.4661880731582642e-01</leafValues></_>
        <_>
          <internalNodes>
            0 -1 117 -8.6029786616563797e-03</internalNodes>
          <leafValues>
            4.5136463642120361e-01 -1.6234852373600006e-01</leafValues></_></weakClassifiers></_>
    <!-- stage 26 -->
    <_>
      <maxWeakCount>15</maxWeakCount>
      <stageThreshold>-1.6003772020339966e+00</stageThreshold>
      <weakClassifiers>
        <_>
          <internalNodes>
            0 -1 90 -2.1669369190931320e-02</internalNodes>
          <leafValues>
            4.8768472671508789e-01 -5.9629845619201660e-01</leafValues></_>
        <_>
          <internalNodes>
            0 -1 344 1.6049239784479141e-02</internalNodes>
          <leafValues>
            8.6066693067550659e-02 -8.2179182767868042e-01</leafValues></_>
        <_>
          <internalNodes>
            0 -1 189 1.5999047085642815e-02</internalNodes>
          <leafValues>
            -2.0990636944770813e-01 5.9281051158905029e-01</leafValues></_>
        <_>
          <internalNodes>
            0 -1 272 1.5927573258522898e-04</internalNodes>
          <leafValues>
            2.9246228933334351e-01 -4.3695440888404846e-01</leafValues></_>
        <_>
          <internalNodes>
            0 -1 436 -1.3017967830819543e-05</internalNodes>
          <leafValues>
            4.1421002149581909e-01 -2.5042715668678284e-01</leafValues></_>
        <_>
          <internalNodes>
            0 -1 195 -7.2645815089344978e-03</internalNodes>
          <leafValues>
            3.8486611843109131e-01 -2.5461998581886292e-01</leafValues></_>
        <_>
          <internalNodes>
            0 -1 292 -1.7314344644546509e-02</internalNodes>
          <leafValues>
            6.5125495195388794e-01 -1.6150000691413879e-01</leafValues></_>
        <_>
          <internalNodes>
            0 -1 317 -2.5817390531301498e-02</internalNodes>
          <leafValues>
            6.6089427471160889e-01 -1.4128455519676208e-01</leafValues></_>
        <_>
          <internalNodes>
            0 -1 420 -3.4347083419561386e-04</internalNodes>
          <leafValues>
            5.2981865406036377e-01 -1.7124392092227936e-01</leafValues></_>
        <_>
          <internalNodes>
            0 -1 242 4.5163542963564396e-03</internalNodes>
          <leafValues>
            1.6997380554676056e-01 -5.6449401378631592e-01</leafValues></_>
        <_>
          <internalNodes>
            0 -1 150 -5.5773678468540311e-04</internalNodes>
          <leafValues>
            5.2370047569274902e-01 -1.9244389235973358e-01</leafValues></_>
        <_>
          <internalNodes>
            0 -1 237 8.8788819266483188e-04</internalNodes>
          <leafValues>
            -1.5281820297241211e-01 5.7403284311294556e-01</leafValues></_>
        <_>
          <internalNodes>
            0 -1 379 -5.6787475943565369e-02</internalNodes>
          <leafValues>
            8.1841617822647095e-01 -1.0919144004583359e-01</leafValues></_>
        <_>
          <internalNodes>
            0 -1 1 7.9772561788558960e-02</internalNodes>
          <leafValues>
            1.1667072027921677e-01 -8.8622021675109863e-01</leafValues></_>
        <_>
          <internalNodes>
            0 -1 386 -5.6116171181201935e-03</internalNodes>
          <leafValues>
            -3.5386687517166138e-01 2.4255569279193878e-01</leafValues></_></weakClassifiers></_>
    <!-- stage 27 -->
    <_>
      <maxWeakCount>7</maxWeakCount>
      <stageThreshold>-1.4060498476028442e+00</stageThreshold>
      <weakClassifiers>
        <_>
          <internalNodes>
            0 -1 180 6.7895404994487762e-02</internalNodes>
          <leafValues>
            -6.6049778461456299e-01 2.8219178318977356e-01</leafValues></_>
        <_>
          <internalNodes>
            0 -1 54 6.4001465216279030e-03</internalNodes>
          <leafValues>
            1.7121705412864685e-01 -7.3154437541961670e-01</leafValues></_>
        <_>
          <internalNodes>
            0 -1 267 6.7052117083221674e-04</internalNodes>
          <leafValues>
            -4.2573383450508118e-01 3.1556954979896545e-01</leafValues></_>
        <_>
          <internalNodes>
            0 -1 398 -1.3919839635491371e-02</internalNodes>
          <leafValues>
            6.5027165412902832e-01 -1.8672497570514679e-01</leafValues></_>
        <_>
          <internalNodes>
            0 -1 219 9.8555185832083225e-04</internalNodes>
          <leafValues>
            3.6277887225151062e-01 -3.0293285846710205e-01</leafValues></_>
        <_>
          <internalNodes>
            0 -1 45 -2.3825388401746750e-02</internalNodes>
          <leafValues>
            -5.8199870586395264e-01 2.0103506743907928e-01</leafValues></_>
        <_>
          <internalNodes>
            0 -1 258 -4.8991991207003593e-03</internalNodes>
          <leafValues>
            6.6962152719497681e-01 -1.6068208217620850e-01</leafValues></_></weakClassifiers></_>
    <!-- stage 28 -->
    <_>
      <maxWeakCount>11</maxWeakCount>
      <stageThreshold>-1.7207946777343750e+00</stageThreshold>
      <weakClassifiers>
        <_>
          <internalNodes>
            0 -1 121 5.0336070358753204e-02</internalNodes>
          <leafValues>
            -6.4012539386749268e-01 2.6409494876861572e-01</leafValues></_>
        <_>
          <internalNodes>
            0 -1 236 -1.6096178442239761e-02</internalNodes>
          <leafValues>
            3.7319666147232056e-01 -3.5290792584419250e-01</leafValues></_>
        <_>
          <internalNodes>
            0 -1 415 -4.2987369000911713e-02</internalNodes>
          <leafValues>
            7.3643308877944946e-01 -1.5118317306041718e-01</leafValues></_>
        <_>
          <internalNodes>
            0 -1 365 -3.9025405421853065e-03</internalNodes>
          <leafValues>
            4.8360455036163330e-01 -2.1590155363082886e-01</leafValues></_>
        <_>
          <internalNodes>
            0 -1 374 2.2792339324951172e-02</internalNodes>
          <leafValues>
            2.0262354612350464e-01 -5.0897043943405151e-01</leafValues></_>
        <_>
          <internalNodes>
            0 -1 341 -2.9546855948865414e-03</internalNodes>
          <leafValues>
            7.4532508850097656e-01 -1.3775822520256042e-01</leafValues></_>
        <_>
          <internalNodes>
            0 -1 347 -3.3879328519105911e-02</internalNodes>
          <leafValues>
            -4.1313380002975464e-01 2.5455012917518616e-01</leafValues></_>
        <_>
          <internalNodes>
            0 -1 393 -7.2020003572106361e-03</internalNodes>
          <leafValues>
            6.1538201570510864e-01 -1.7398177087306976e-01</leafValues></_>
        <_>
          <internalNodes>
            0 -1 119 -1.4252521395974327e-05</internalNodes>
          <leafValues>
            2.3910827934741974e-01 -4.3855696916580200e-01</leafValues></_>
        <_>
          <internalNodes>
            0 -1 333 -1.3876700773835182e-02</internalNodes>
          <leafValues>
            7.7972269058227539e-01 -1.2369125336408615e-01</leafValues></_>
        <_>
          <internalNodes>
            0 -1 244 -2.8824929147958755e-02</internalNodes>
          <leafValues>
            7.4588894844055176e-01 -1.1988434940576553e-01</leafValues></_></weakClassifiers></_>
    <!-- stage 29 -->
    <_>
      <maxWeakCount>9</maxWeakCount>
      <stageThreshold>-1.4634965658187866e+00</stageThreshold>
      <weakClassifiers>
        <_>
          <internalNodes>
            0 -1 232 1.5441554784774780e-01</internalNodes>
          <leafValues>
            -6.5367966890335083e-01 3.9682540297508240e-01</leafValues></_>
        <_>
          <internalNodes>
            0 -1 446 7.0350640453398228e-04</internalNodes>
          <leafValues>
            -4.7725188732147217e-01 3.6252972483634949e-01</leafValues></_>
        <_>
          <internalNodes>
            0 -1 186 -1.7166174948215485e-02</internalNodes>
          <leafValues>
            8.6457788944244385e-01 -1.8019545078277588e-01</leafValues></_>
        <_>
          <internalNodes>
            0 -1 171 -1.7295733094215393e-02</internalNodes>
          <leafValues>
            7.2143399715423584e-01 -1.4333629608154297e-01</leafValues></_>
        <_>
          <internalNodes>
            0 -1 359 -1.8446047324687243e-03</internalNodes>
          <leafValues>
            5.3378921747207642e-01 -2.1003949642181396e-01</leafValues></_>
        <_>
          <internalNodes>
            0 -1 23 -2.3115845397114754e-02</internalNodes>
          <leafValues>
            -7.9295200109481812e-01 1.5201146900653839e-01</leafValues></_>
        <_>
          <internalNodes>
            0 -1 199 -7.3811396956443787e-02</internalNodes>
          <leafValues>
            -7.5015819072723389e-01 1.5117156505584717e-01</leafValues></_>
        <_>
          <internalNodes>
            0 -1 243 -5.2019231952726841e-04</internalNodes>
          <leafValues>
            -4.7704938054084778e-01 2.2438393533229828e-01</leafValues></_>
        <_>
          <internalNodes>
            0 -1 213 -6.9446633569896221e-03</internalNodes>
          <leafValues>
            7.2763395309448242e-01 -1.6905970871448517e-01</leafValues></_></weakClassifiers></_></stages>
  <features>
    <_>
      <rects>
        <_>
          0 0 2 3 -1.</_>
        <_>
          0 1 2 1 3.</_></rects>
      <tilted>0</tilted></_>
    <_>
      <rects>
        <_>
          0 0 3 24 -1.</_>
        <_>
          0 12 3 12 2.</_></rects>
      <tilted>0</tilted></_>
    <_>
      <rects>
        <_>
          0 0 10 12 -1.</_>
        <_>
          0 0 5 6 2.</_>
        <_>
          5 6 5 6 2.</_></rects>
      <tilted>0</tilted></_>
    <_>
      <rects>
        <_>
          0 0 16 6 -1.</_>
        <_>
          0 0 8 3 2.</_>
        <_>
          8 3 8 3 2.</_></rects>
      <tilted>0</tilted></_>
    <_>
      <rects>
        <_>
          0 0 18 8 -1.</_>
        <_>
          0 0 9 4 2.</_>
        <_>
          9 4 9 4 2.</_></rects>
      <tilted>0</tilted></_>
    <_>
      <rects>
        <_>
          0 1 6 22 -1.</_>
        <_>
          0 1 3 11 2.</_>
        <_>
          3 12 3 11 2.</_></rects>
      <tilted>0</tilted></_>
    <_>
      <rects>
        <_>
          0 2 4 18 -1.</_>
        <_>
          0 8 4 6 3.</_></rects>
      <tilted>0</tilted></_>
    <_>
      <rects>
        <_>
